{"learner":{"attributes":{"scikit_learn":"{\"_estimator_type\": \"regressor\"}"},"feature_names":["agent_age","weather","traffic","vehicle","area","category","distance_km"],"feature_types":["int","int","int","int","int","int","float"],"gradient_booster":{"model":{"gbtree_model_param":{"num_parallel_tree":"1","num_trees":"90"},"iteration_indptr":[0,1,2,3,4,5,6,7,8,9,10,11,12,13,14,15,16,17,18,19,20,21,22,23,24,25,26,27,28,29,30,31,32,33,34,35,36,37,38,39,40,41,42,43,44,45,46,47,48,49,50,51,52,53,54,55,56,57,58,59,60,61,62,63,64,65,66,67,68,69,70,71,72,73,74,75,76,77,78,79,80,81,82,83,84,85,86,87,88,89,90],"tree_info":[0,0,0,0,0,0,0,0,0,0,0,0,0,0,0,0,0,0,0,0,0,0,0,0,0,0,0,0,0,0,0,0,0,0,0,0,0,0,0,0,0,0,0,0,0,0,0,0,0,0,0,0,0,0,0,0,0,0,0,0,0,0,0,0,0,0,0,0,0,0,0,0,0,0,0,0,0,0,0,0,0,0,0,0,0,0,0,0,0,0],"trees":[{"base_weights":[1.2091372E-1,-1.4558268E1,1.6944014E1,3.8496697E0,-2.6882215E1,4.8468113E1,9.48743E-1,-1.1889071E1,1.8991924E1,-3.9419025E1,-1.4379662E1,7.333576E1,3.0094467E1,-1.7867933E1,1.9282946E1,-2.0461483E0,-2.5679094E1,2.7023031E1,2.9620218E0,-4.4835667E1,-2.888945E1,-3.0831854E1,-5.6959615E0,6.165129E1,8.5536674E1,1.1793849E1,4.9885376E1,-2.7875343E1,-1.1750615E1,4.1169453E1,3.0391862E0,-1.3647721E1,5.129048E0,-3.510705E1,-1.9352701E1,1.4265217E1,3.5482925E1,1.6660564E1,-3.4495158E0,-3.9885235E1,-5.153077E1,-2.3877684E1,-3.9837048E1,-1.9405212E1,-4.392307E1,-1.3856975E1,9.952692E0,4.7682346E1,6.989393E1,7.090832E1,9.3604004E1,-1.3236577E1,3.378767E1,3.786697E1,5.76807E1,-1.4079128E1,-1.1792859E1,-5.844982E0,-2.650267E1,5.4251205E1,2.362136E1,-1.5228838E1,2.1877853E1,4.260031E0,-1.1211527E1,1.0898552E1,-1.2835973E1,-1.8856363E1,-1.1895887E1,-1.2573575E1,-3.212679E1,3.4331768E1,-1.0741806E1,4.058093E1,2.8196213E1,2.5944933E1,1.0540721E0,-1.1047735E1,7.791342E0,-4.623807E1,-3.5855362E1,-5.63682E1,-4.8355316E1,-3.288491E1,-1.7821196E1,-4.774032E1,-3.3194534E1,-3.1883118E1,-1.249321E1,-4.9560493E1,-4.696163E0,-2.3579655E1,-7.8351936E0,-5.9109297E0,1.8444916E1,6.7610306E1,-9.668896E0,8.710557E0,7.1600614E0,9.4039894E1,-9.021586E0,1.00365486E2,9.705529E0,-2.1858675E1,-8.364237E0,1.8195389E1,4.295687E1,5.826716E1,-1.0047888E1,4.958563E1,6.799297E1,-8.071799E0,-2.2256506E1,1.1744529E0,-1.7223839E1,-1.9450863E1,-3.4331768E1,4.087532E1,6.087884E1,9.508708E0,3.2757202E1,-2.36505E1,-1.0169151E1,3.0974142E1,8.063975E0,9.789749E-1,-1.0525575E0,-1.7820096E-2,3.8192098E0,-2.5004916E0,-6.371916E-1,1.2325553E0,-3.8956876E0,1.374504E0,-3.2149525E0,9.066433E-1,-4.83758E0,4.400726E0,3.4095073E0,3.3293786E0,6.2496886E0,3.8473523E0,2.747122E0,-1.2674665E0,6.0432386E0,-2.39599E0,2.6383102E0,-2.2962654E0,4.30355E0,-5.9818034E0,-5.1222954E0,-3.6649256E0,-5.135101E0,-7.0685005E0,-5.315088E0,-6.036298E0,-4.725289E0,-5.137171E0,-3.2158968E0,-2.453932E0,-6.424195E-1,-7.3054523E0,-4.331391E0,-5.051591E0,-3.0917737E0,-4.385256E0,-2.0319917E0,-1.173494E0,-2.3511817E0,-5.2757425E0,-6.156358E0,-1.9131274E0,-3.9411447E0,2.889506E-1,-1.9555124E0,4.8368704E-1,-1.8640319E0,3.361803E0,8.258481E-1,8.409316E0,7.0183153E0,1.1685484E1,9.82515E0,1.187403E1,4.1869106E0,-3.7087605E0,-2.1718965E0,-1.293176E0,-4.2511073E-1,3.08428E0,1.0164194E0,5.920022E0,3.9100564E0,7.5469575E0,5.5186253E0,6.817189E0,4.1938415E0,8.595787E0,7.0896397E0,1.2617886E-1,-1.7273909E0,-2.0516124E0,-4.045501E0,1.6095507E0,-1.119347E0,-1.6140348E0,-2.50377E0,-1.6194026E0,-3.2501698E0,-2.8014355E0,-4.91709E0,5.7380342E0,3.6922655E0,8.552497E0,5.4885173E0,2.2893982E0,-2.8883666E-1,5.69644E0,1.7533371E0,-1.6903676E0,-3.1997287E0,-7.382051E-1,-1.8250655E0,4.960295E0,2.3754737E0,2.187529E0,-2.5469923E-1],"categories":[],"categories_nodes":[],"categories_segments":[],"categories_sizes":[],"default_left":[0,0,0,0,0,0,0,0,0,0,0,0,0,0,0,0,0,0,0,0,0,0,0,0,0,0,0,0,0,0,0,0,0,0,0,0,0,0,0,0,0,0,0,0,0,0,0,0,0,0,0,0,0,0,0,0,0,0,0,0,0,0,0,0,0,0,0,0,0,0,0,0,0,0,0,0,0,0,0,0,0,0,0,0,0,0,0,0,0,0,0,0,0,0,0,0,0,0,0,0,0,0,0,0,0,0,0,0,0,0,0,0,0,0,0,0,0,0,0,0,0,0,0,0,0,0,0,0,0,0,0,0,0,0,0,0,0,0,0,0,0,0,0,0,0,0,0,0,0,0,0,0,0,0,0,0,0,0,0,0,0,0,0,0,0,0,0,0,0,0,0,0,0,0,0,0,0,0,0,0,0,0,0,0,0,0,0,0,0,0,0,0,0,0,0,0,0,0,0,0,0,0,0,0,0,0,0,0,0,0,0,0,0,0,0,0,0,0,0,0,0,0,0,0,0,0,0],"id":0,"left_children":[1,3,5,7,9,11,13,15,17,19,21,23,25,27,29,31,33,35,37,39,41,43,45,47,49,51,53,55,57,59,61,63,65,67,69,71,73,75,77,79,81,83,85,87,89,91,93,95,97,99,101,103,105,107,109,111,-1,113,115,117,119,121,123,125,-1,127,129,131,-1,133,135,137,-1,139,141,143,145,-1,147,149,151,153,155,157,159,161,163,165,167,169,-1,171,173,175,177,179,-1,-1,-1,181,-1,183,-1,185,187,189,191,193,-1,195,197,199,201,203,205,207,209,211,213,215,217,219,221,223,225,-1,-1,-1,-1,-1,-1,-1,-1,-1,-1,-1,-1,-1,-1,-1,-1,-1,-1,-1,-1,-1,-1,-1,-1,-1,-1,-1,-1,-1,-1,-1,-1,-1,-1,-1,-1,-1,-1,-1,-1,-1,-1,-1,-1,-1,-1,-1,-1,-1,-1,-1,-1,-1,-1,-1,-1,-1,-1,-1,-1,-1,-1,-1,-1,-1,-1,-1,-1,-1,-1,-1,-1,-1,-1,-1,-1,-1,-1,-1,-1,-1,-1,-1,-1,-1,-1,-1,-1,-1,-1,-1,-1,-1,-1,-1,-1,-1,-1,-1,-1,-1,-1],"loss_changes":[4.430517E6,2.173635E6,4.215371E6,9.160896E5,8.9897625E5,1.2835365E6,1.9139972E6,2.5580631E5,2.5211738E5,1.621095E5,4.105638E5,1.650865E5,5.861529E5,1.6728881E5,9.988838E5,9.172117E4,4.6141938E4,1.4034212E5,5.758528E4,6.0586E4,5.2598812E4,1.4768925E5,2.406137E5,6.736375E4,6.20455E4,4.6453112E5,7.07045E4,1.0502385E6,1.480366E5,2.735015E5,5.557836E5,6.2368225E5,7.072505E4,3.4042078E5,4.046989E4,1.1192389E6,2.7979562E4,3.0256E4,4.6030675E5,2.6272875E4,9.56325E3,3.607297E4,1.4427094E4,4.5485266E4,7.3194375E3,7.2297484E4,8.713647E4,6.074981E5,1.1292875E4,7.31659E5,1.734575E4,1.641104E4,6.3411406E4,7.87875E5,3.58635E4,4.280403E4,0E0,9.7145984E4,2.6163938E4,5.823725E4,6.5830125E4,3.4700484E4,9.964594E4,1.9234363E4,0E0,1.249645E5,1.0448242E4,1.09637266E5,0E0,1.1405248E5,6.169858E4,6.5998125E3,0E0,7.054494E4,6.4958125E3,1.2589068E5,3.7410156E4,0E0,3.2113275E5,2.5685E3,2.2868125E4,1.1736375E4,1.1214375E4,1.4687875E4,1.60895E4,1.9332469E4,1.02855625E4,1.5131453E4,6.1892617E3,7.0875E1,0E0,3.4176594E4,7.089247E4,2.3050947E4,4.966458E4,2.4589375E3,0E0,0E0,0E0,2.719625E3,0E0,1.953075E4,0E0,3.9507734E3,3.245455E3,1.2967156E4,1.9162031E4,1.58965E4,0E0,3.0397375E4,3.96375E3,3.1372668E4,2.0803344E4,1.0294737E5,6.3792656E3,1.171675E4,1.757925E4,1.6166594E4,7.53795E4,2.4777371E4,8.8306625E4,1.0358156E4,1.0739887E4,5.804375E4,3.4910254E4,0E0,0E0,0E0,0E0,0E0,0E0,0E0,0E0,0E0,0E0,0E0,0E0,0E0,0E0,0E0,0E0,0E0,0E0,0E0,0E0,0E0,0E0,0E0,0E0,0E0,0E0,0E0,0E0,0E0,0E0,0E0,0E0,0E0,0E0,0E0,0E0,0E0,0E0,0E0,0E0,0E0,0E0,0E0,0E0,0E0,0E0,0E0,0E0,0E0,0E0,0E0,0E0,0E0,0E0,0E0,0E0,0E0,0E0,0E0,0E0,0E0,0E0,0E0,0E0,0E0,0E0,0E0,0E0,0E0,0E0,0E0,0E0,0E0,0E0,0E0,0E0,0E0,0E0,0E0,0E0,0E0,0E0,0E0,0E0,0E0,0E0,0E0,0E0,0E0,0E0,0E0,0E0,0E0,0E0,0E0,0E0,0E0,0E0,0E0,0E0,0E0,0E0],"parents":[2147483647,0,0,1,1,2,2,3,3,4,4,5,5,6,6,7,7,8,8,9,9,10,10,11,11,12,12,13,13,14,14,15,15,16,16,17,17,18,18,19,19,20,20,21,21,22,22,23,23,24,24,25,25,26,26,27,27,28,28,29,29,30,30,31,31,32,32,33,33,34,34,35,35,36,36,37,37,38,38,39,39,40,40,41,41,42,42,43,43,44,44,45,45,46,46,47,47,48,48,49,49,50,50,51,51,52,52,53,53,54,54,55,55,57,57,58,58,59,59,60,60,61,61,62,62,63,63,65,65,66,66,67,67,69,69,70,70,71,71,73,73,74,74,75,75,76,76,78,78,79,79,80,80,81,81,82,82,83,83,84,84,85,85,86,86,87,87,88,88,89,89,91,91,92,92,93,93,94,94,95,95,99,99,101,101,103,103,104,104,105,105,106,106,107,107,109,109,110,110,111,111,112,112,113,113,114,114,115,115,116,116,117,117,118,118,119,119,120,120,121,121,122,122,123,123,124,124],"right_children":[2,4,6,8,10,12,14,16,18,20,22,24,26,28,30,32,34,36,38,40,42,44,46,48,50,52,54,56,58,60,62,64,66,68,70,72,74,76,78,80,82,84,86,88,90,92,94,96,98,100,102,104,106,108,110,112,-1,114,116,118,120,122,124,126,-1,128,130,132,-1,134,136,138,-1,140,142,144,146,-1,148,150,152,154,156,158,160,162,164,166,168,170,-1,172,174,176,178,180,-1,-1,-1,182,-1,184,-1,186,188,190,192,194,-1,196,198,200,202,204,206,208,210,212,214,216,218,220,222,224,226,-1,-1,-1,-1,-1,-1,-1,-1,-1,-1,-1,-1,-1,-1,-1,-1,-1,-1,-1,-1,-1,-1,-1,-1,-1,-1,-1,-1,-1,-1,-1,-1,-1,-1,-1,-1,-1,-1,-1,-1,-1,-1,-1,-1,-1,-1,-1,-1,-1,-1,-1,-1,-1,-1,-1,-1,-1,-1,-1,-1,-1,-1,-1,-1,-1,-1,-1,-1,-1,-1,-1,-1,-1,-1,-1,-1,-1,-1,-1,-1,-1,-1,-1,-1,-1,-1,-1,-1,-1,-1,-1,-1,-1,-1,-1,-1,-1,-1,-1,-1,-1,-1],"split_conditions":[1.0279038E1,2E0,2E0,3E1,3E1,2E0,3E1,1E0,4E0,3E0,2E0,3E1,3E1,6E0,2E0,6E0,6E0,6E0,5E0,1E0,1E0,1E0,3E0,6E0,6E0,3E0,6E0,5E0,1E0,1E0,3E0,5E0,3E0,5E0,1E0,5E0,1E0,1E0,6E0,6E0,6E0,6E0,7E0,6E0,6E0,6E0,6E0,5E0,1E0,5E0,1E0,6E0,6E0,5E0,3E0,1E0,-1.1792859E1,1E0,1E0,6E0,6E0,6E0,1E0,1E0,-1.1211527E1,4E0,1E0,2E0,-1.1895887E1,2E0,2E0,1E0,-1.0741806E1,2E0,2E0,5E0,5E0,-1.1047735E1,5E0,2E0,1E0,4E0,4E0,2E0,5E0,2E0,2E0,3E0,2E0,1E0,-4.696163E0,1E0,4E0,4E0,4E0,1E0,-9.668896E0,8.710557E0,7.1600614E0,1E0,-9.021586E0,2.096893E1,9.705529E0,2.2E1,1E0,1E0,1E0,1E0,-1.0047888E1,1E0,1E0,2E0,1E0,2E0,2.6E1,2.6E1,2E0,4E0,4E0,4E0,4E0,1.2418412E1,1E0,4E0,4E0,9.789749E-1,-1.0525575E0,-1.7820096E-2,3.8192098E0,-2.5004916E0,-6.371916E-1,1.2325553E0,-3.8956876E0,1.374504E0,-3.2149525E0,9.066433E-1,-4.83758E0,4.400726E0,3.4095073E0,3.3293786E0,6.2496886E0,3.8473523E0,2.747122E0,-1.2674665E0,6.0432386E0,-2.39599E0,2.6383102E0,-2.2962654E0,4.30355E0,-5.9818034E0,-5.1222954E0,-3.6649256E0,-5.135101E0,-7.0685005E0,-5.315088E0,-6.036298E0,-4.725289E0,-5.137171E0,-3.2158968E0,-2.453932E0,-6.424195E-1,-7.3054523E0,-4.331391E0,-5.051591E0,-3.0917737E0,-4.385256E0,-2.0319917E0,-1.173494E0,-2.3511817E0,-5.2757425E0,-6.156358E0,-1.9131274E0,-3.9411447E0,2.889506E-1,-1.9555124E0,4.8368704E-1,-1.8640319E0,3.361803E0,8.258481E-1,8.409316E0,7.0183153E0,1.1685484E1,9.82515E0,1.187403E1,4.1869106E0,-3.7087605E0,-2.1718965E0,-1.293176E0,-4.2511073E-1,3.08428E0,1.0164194E0,5.920022E0,3.9100564E0,7.5469575E0,5.5186253E0,6.817189E0,4.1938415E0,8.595787E0,7.0896397E0,1.2617886E-1,-1.7273909E0,-2.0516124E0,-4.045501E0,1.6095507E0,-1.119347E0,-1.6140348E0,-2.50377E0,-1.6194026E0,-3.2501698E0,-2.8014355E0,-4.91709E0,5.7380342E0,3.6922655E0,8.552497E0,5.4885173E0,2.2893982E0,-2.8883666E-1,5.69644E0,1.7533371E0,-1.6903676E0,-3.1997287E0,-7.382051E-1,-1.8250655E0,4.960295E0,2.3754737E0,2.187529E0,-2.5469923E-1],"split_indices":[6,2,1,0,0,2,0,3,1,2,1,0,0,5,2,5,5,5,5,3,4,3,2,5,5,2,5,5,4,3,2,5,4,5,4,5,3,3,5,5,5,5,5,5,5,5,5,5,3,5,3,5,5,5,2,3,0,3,3,5,5,5,3,4,0,1,2,1,0,1,1,3,0,1,1,1,1,0,1,1,4,1,1,1,1,1,1,2,4,1,0,3,1,1,1,3,0,0,0,3,0,6,0,0,3,3,3,3,0,3,3,2,4,2,0,0,2,1,1,1,1,6,3,1,1,0,0,0,0,0,0,0,0,0,0,0,0,0,0,0,0,0,0,0,0,0,0,0,0,0,0,0,0,0,0,0,0,0,0,0,0,0,0,0,0,0,0,0,0,0,0,0,0,0,0,0,0,0,0,0,0,0,0,0,0,0,0,0,0,0,0,0,0,0,0,0,0,0,0,0,0,0,0,0,0,0,0,0,0,0,0,0,0,0,0,0,0,0,0,0,0,0,0,0,0,0,0],"split_type":[0,0,0,0,0,0,0,0,0,0,0,0,0,0,0,0,0,0,0,0,0,0,0,0,0,0,0,0,0,0,0,0,0,0,0,0,0,0,0,0,0,0,0,0,0,0,0,0,0,0,0,0,0,0,0,0,0,0,0,0,0,0,0,0,0,0,0,0,0,0,0,0,0,0,0,0,0,0,0,0,0,0,0,0,0,0,0,0,0,0,0,0,0,0,0,0,0,0,0,0,0,0,0,0,0,0,0,0,0,0,0,0,0,0,0,0,0,0,0,0,0,0,0,0,0,0,0,0,0,0,0,0,0,0,0,0,0,0,0,0,0,0,0,0,0,0,0,0,0,0,0,0,0,0,0,0,0,0,0,0,0,0,0,0,0,0,0,0,0,0,0,0,0,0,0,0,0,0,0,0,0,0,0,0,0,0,0,0,0,0,0,0,0,0,0,0,0,0,0,0,0,0,0,0,0,0,0,0,0,0,0,0,0,0,0,0,0,0,0,0,0,0,0,0,0,0,0],"sum_hessian":[1.7939E4,9.58E3,8.359E3,3.842E3,5.738E3,2.813E3,5.546E3,1.884E3,1.958E3,2.864E3,2.874E3,1.194E3,1.619E3,2.737E3,2.809E3,1.1E3,7.84E2,1.304E3,6.54E2,1.889E3,9.75E2,9.92E2,1.882E3,6.13E2,5.81E2,8.42E2,7.77E2,1.037E3,1.7E3,1.196E3,1.613E3,4.2E2,6.8E2,3.13E2,4.71E2,5.21E2,7.83E2,2.08E2,4.46E2,1.09E3,7.99E2,6.71E2,3.04E2,5.31E2,4.61E2,1.237E3,6.45E2,2.3E2,3.83E2,2.1E2,3.71E2,3.94E2,4.48E2,3.08E2,4.69E2,8.74E2,1.63E2,1.215E3,4.85E2,6.84E2,5.12E2,8.19E2,7.94E2,3.46E2,7.4E1,5.15E2,1.65E2,2.53E2,6E1,3.09E2,1.62E2,4.39E2,8.2E1,4.58E2,3.25E2,1.3E2,7.8E1,4.8E1,3.98E2,4.19E2,6.71E2,3.1E2,4.89E2,2.68E2,4.03E2,1.36E2,1.68E2,1.88E2,3.43E2,1.74E2,2.87E2,4.72E2,7.65E2,2.25E2,4.2E2,2E2,3E1,2.36E2,1.47E2,1.82E2,2.8E1,2.18E2,1.53E2,1.41E2,2.53E2,1.67E2,2.81E2,2.65E2,4.3E1,2.66E2,2.03E2,5.05E2,3.69E2,7.52E2,4.63E2,2.57E2,2.28E2,2.29E2,4.55E2,2.02E2,3.1E2,3.06E2,5.13E2,4.78E2,3.16E2,2.64E2,8.2E1,3.43E2,1.72E2,7.5E1,9E1,8.4E1,1.69E2,1.18E2,1.91E2,3.1E1,1.31E2,2.56E2,1.83E2,2.41E2,2.17E2,1.55E2,1.7E2,5.4E1,7.6E1,3.9E1,3.9E1,2.05E2,1.93E2,1.2E2,2.99E2,4.42E2,2.29E2,2.17E2,9.3E1,3.33E2,1.56E2,8.3E1,1.85E2,3.18E2,8.5E1,5.4E1,8.2E1,6.4E1,1.04E2,1.33E2,5.5E1,2.63E2,8E1,8.3E1,9.1E1,2.8E2,1.92E2,3.56E2,4.09E2,1.13E2,1.12E2,2.18E2,2.02E2,1.17E2,8.3E1,1.04E2,7.8E1,2.12E2,6E0,3.2E1,1.09E2,1.59E2,9.4E1,8.8E1,7.9E1,1.5E2,1.31E2,1.62E2,1.03E2,1.58E2,1.08E2,1.06E2,9.7E1,2.15E2,2.9E2,2.71E2,9.8E1,3.46E2,4.06E2,2.62E2,2.01E2,1.57E2,1E2,1.01E2,1.27E2,1.17E2,1.12E2,2.35E2,2.2E2,1.09E2,9.3E1,1.61E2,1.49E2,9.2E1,2.14E2,3.04E2,2.09E2,2.26E2,2.52E2,1.54E2,1.62E2],"tree_param":{"num_deleted":"0","num_feature":"7","num_nodes":"227","size_leaf_vector":"1"}},{"base_weights":[2.0879361E-1,-1.3898977E1,1.4008437E1,-2.5545992E1,-4.1033816E-1,3.1927284E1,1.3279853E0,-1.0875144E1,-3.515189E1,2.7433254E1,-1.5624124E1,4.0924713E1,1.4162148E1,-8.590132E0,1.5540033E1,-2.6695201E0,-2.2190603E1,-3.9773407E1,-2.6377445E1,5.3547443E1,8.892167E0,-9.230178E0,-2.4503338E1,2.7330032E1,4.9363007E1,-1.0591783E1,3.9207012E1,-1.6533117E1,-3.750877E0,3.770908E0,2.267112E1,-1.2845732E1,3.4519427E0,2.673661E0,-3.3513958E1,-3.5428555E1,-4.6206795E1,-3.699762E1,-2.0345789E1,4.1856796E1,5.9777084E1,-1.2042056E0,1.5303639E1,-1.9350416E1,-3.0732257E0,-2.0823341E1,-3.300612E1,4.9299118E1,-9.576902E0,3.1765856E1,6.745026E1,-2.091057E1,3.4458077E0,2.7856264E1,5.1916252E1,-2.9208472E0,-1.1174339E1,-1.2201571E1,9.049468E0,2.12898E1,-1.0748228E1,5.6688395E0,3.8280422E1,5.310474E1,-1.3784107E1,8.501839E0,-1.0296974E1,1.7095829E1,1.7456688E0,-2.6409433E1,-3.9627808E1,-3.28669E1,-4.0187023E1,-4.9381725E1,-3.878192E1,-2.9142076E1,-4.7853474E1,-1.2612809E1,-2.890487E1,-8.378444E0,4.3346172E1,6.3815086E1,5.3433018E1,-1.817513E1,1.3675955E1,-6.116917E0,3.6829704E1,-1.0882855E1,-2.5712833E1,7.403927E0,-1.1531311E1,-1.6215403E1,-2.3636478E1,-2.6394896E1,-3.782706E1,2.9783854E1,7.1330284E1,2.64878E1,3.718075E1,8.132058E1,5.418631E1,-1.4387547E1,-2.9627089E1,1.5559035E1,-1.0303128E1,3.7090157E1,1.3659726E1,6.031856E1,3.770082E1,-9.691606E0,7.590482E0,-2.3149605E1,-6.282851E0,4.2852257E1,-8.495544E0,3.0579598E0,3.811466E1,-1.5694612E1,1.592786E1,5.9133514E1,2.852461E1,7.502621E0,-2.1237682E-1,7.3963857E-1,-1.0136907E1,1.1654891E0,-4.6415877E-1,-1.6576924E0,2.2784774E0,2.217456E0,3.407966E-1,-1.1618983E0,9.5133114E-1,-2.6012263E0,-3.9320545E0,-5.338741E0,-4.188744E0,-4.841692E0,-3.2837818E0,-2.9945343E0,-4.789162E0,-6.365037E0,-5.385264E0,-4.097029E0,-5.332899E0,-2.5833905E0,-4.8966928E0,-5.6360126E0,-2.53276E0,-2.4576948E0,-3.6496037E-1,-4.3465905E0,-2.6967988E0,4.61087E0,-6.317559E0,6.9743466E0,-8.724711E0,1.2564099E0,7.4490814E0,1.0556486E0,6.2456055E0,-3.2813963E-1,-1.1040193E1,4.7146883E0,-1.0435969E1,-1.0962358E0,-9.556884E-3,5.0349917E0,3.3661022E0,7.453354E-1,-9.917554E0,-1.5193594E0,-1.0307601E1,1.2573315E0,-5.586167E-1,-2.5092049E0,-9.382086E-2,-2.100715E0,-7.7924955E-1,-3.645504E0,-2.2145307E0,-3.223209E0,-9.418038E-1,-5.6337676E0,-3.7869916E0,3.794167E0,3.0503197E0,9.349799E0,6.9365993E0,3.2498786E0,2.3512115E0,5.528513E0,2.5678306E0,9.569693E0,1.5628107E0,7.4117246E0,4.62469E0,-2.4174771E0,-1.1115685E0,-4.485497E0,-2.7958057E0,3.563789E0,1.1994975E0,-1.9093139E0,-3.365491E-1,3.7326684E0,6.127384E0,6.843844E-2,2.308216E0,7.5467196E0,3.3551254E0,2.60545E0,5.812953E0,-4.8130223E-1,-2.14059E0,1.385956E0,1.915592E-1,-1.7994947E0,-4.0426946E0,-2.8790203E-1,-1.4006011E0,6.0235877E0,3.510292E0,-6.372941E-1,-1.4972318E0,1.2619197E0,-1.1033176E0,5.311288E0,3.1031795E0,-1.3954687E-1,-4.087422E0,2.091971E0,8.973964E-1,7.3385506E0,6.213438E0,4.2296333E0,1.9485509E0],"categories":[],"categories_nodes":[],"categories_segments":[],"categories_sizes":[],"default_left":[0,0,0,0,0,0,0,0,0,0,0,0,0,0,0,0,0,0,0,0,0,0,0,0,0,0,0,0,0,0,0,0,0,0,0,0,0,0,0,0,0,0,0,0,0,0,0,0,0,0,0,0,0,0,0,0,0,0,0,0,0,0,0,0,0,0,0,0,0,0,0,0,0,0,0,0,0,0,0,0,0,0,0,0,0,0,0,0,0,0,0,0,0,0,0,0,0,0,0,0,0,0,0,0,0,0,0,0,0,0,0,0,0,0,0,0,0,0,0,0,0,0,0,0,0,0,0,0,0,0,0,0,0,0,0,0,0,0,0,0,0,0,0,0,0,0,0,0,0,0,0,0,0,0,0,0,0,0,0,0,0,0,0,0,0,0,0,0,0,0,0,0,0,0,0,0,0,0,0,0,0,0,0,0,0,0,0,0,0,0,0,0,0,0,0,0,0,0,0,0,0,0,0,0,0,0,0,0,0,0,0,0,0,0,0,0,0,0,0,0,0,0,0,0,0,0,0,0,0,0,0,0,0,0,0,0,0],"id":1,"left_children":[1,3,5,7,9,11,13,15,17,19,21,23,25,27,29,31,33,35,37,39,41,43,45,47,49,51,53,55,57,59,61,63,65,67,69,71,73,75,77,79,81,83,85,87,89,91,93,95,-1,97,99,101,103,105,107,109,-1,111,113,115,-1,117,119,121,123,125,127,129,131,133,135,137,139,141,143,145,147,149,151,153,155,157,159,161,163,165,167,169,171,173,175,177,179,181,183,185,187,189,191,193,195,197,199,201,203,205,207,209,211,213,215,217,219,221,223,225,227,229,231,233,235,-1,-1,-1,-1,-1,-1,-1,-1,-1,-1,-1,-1,-1,-1,-1,-1,-1,-1,-1,-1,-1,-1,-1,-1,-1,-1,-1,-1,-1,-1,-1,-1,-1,-1,-1,-1,-1,-1,-1,-1,-1,-1,-1,-1,-1,-1,-1,-1,-1,-1,-1,-1,-1,-1,-1,-1,-1,-1,-1,-1,-1,-1,-1,-1,-1,-1,-1,-1,-1,-1,-1,-1,-1,-1,-1,-1,-1,-1,-1,-1,-1,-1,-1,-1,-1,-1,-1,-1,-1,-1,-1,-1,-1,-1,-1,-1,-1,-1,-1,-1,-1,-1,-1,-1,-1,-1,-1,-1,-1,-1,-1,-1,-1,-1,-1,-1],"loss_changes":[3.509147E6,1.4002429E6,2.0703779E6,6.7367E5,1.7503469E6,6.0297825E5,7.524197E5,1.7579942E5,1.16144E5,7.064345E5,1.5147181E5,2.86129E5,7.883829E5,1.2078747E5,1.8404956E5,6.850468E4,2.242009E5,5.122025E4,6.33045E4,4.1632125E4,5.5364812E4,9.683228E4,3.4295125E4,2.3204942E6,4.8960625E5,9.277663E4,8.972575E4,1.2869635E6,2.115863E5,1.3977819E6,3.623108E5,2.629104E4,4.7786367E4,3.3160713E3,2.2713E4,1.2489875E4,1.597725E4,2.9391031E4,4.199522E4,1.63744375E4,6.657875E3,8.4341086E4,2.4138072E5,3.1398188E4,8.58663E4,9.766594E3,9.7106875E3,3.4269075E5,0E0,2.1450625E4,1.3559875E5,2.0554344E4,4.5460273E4,4.3539375E4,3.3200375E4,7.245313E4,0E0,7.6187016E4,4.6177278E5,2.152206E5,0E0,1.438051E5,1.4316162E5,3.858537E3,6.028424E5,9.532035E3,2.2076262E4,3.595918E2,1.7870469E4,6.9103438E3,4.9830938E3,2.8979125E4,4.3663125E3,6.19275E3,4.2356875E3,1.810564E4,1.161375E3,2.716691E4,1.3799656E4,1.7568053E4,4.122436E5,1.5576875E3,1.0890938E3,1.8340364E5,4.9708603E5,5.238293E3,1.2018344E4,3.2685756E5,2.65355E5,1.8006006E4,5.7616367E4,5.11175E3,1.6550031E4,3.2153516E3,9.16975E3,3.4425312E3,3.4908375E4,3.0473438E3,5.8999625E4,2.133575E4,5.1235375E4,6.3773945E3,6.9178125E3,1.115607E4,5.739634E3,1.4166969E4,1.0796355E4,2.4442375E4,2.0065375E4,2.9842785E4,1.0218668E4,3.624553E4,1.6748465E4,2.8482906E4,6.696754E3,3.3083465E4,3.020425E4,5.9921168E4,7.3044688E3,1.721875E3,4.4227688E4,0E0,0E0,0E0,0E0,0E0,0E0,0E0,0E0,0E0,0E0,0E0,0E0,0E0,0E0,0E0,0E0,0E0,0E0,0E0,0E0,0E0,0E0,0E0,0E0,0E0,0E0,0E0,0E0,0E0,0E0,0E0,0E0,0E0,0E0,0E0,0E0,0E0,0E0,0E0,0E0,0E0,0E0,0E0,0E0,0E0,0E0,0E0,0E0,0E0,0E0,0E0,0E0,0E0,0E0,0E0,0E0,0E0,0E0,0E0,0E0,0E0,0E0,0E0,0E0,0E0,0E0,0E0,0E0,0E0,0E0,0E0,0E0,0E0,0E0,0E0,0E0,0E0,0E0,0E0,0E0,0E0,0E0,0E0,0E0,0E0,0E0,0E0,0E0,0E0,0E0,0E0,0E0,0E0,0E0,0E0,0E0,0E0,0E0,0E0,0E0,0E0,0E0,0E0,0E0,0E0,0E0,0E0,0E0,0E0,0E0,0E0,0E0,0E0,0E0,0E0,0E0],"parents":[2147483647,0,0,1,1,2,2,3,3,4,4,5,5,6,6,7,7,8,8,9,9,10,10,11,11,12,12,13,13,14,14,15,15,16,16,17,17,18,18,19,19,20,20,21,21,22,22,23,23,24,24,25,25,26,26,27,27,28,28,29,29,30,30,31,31,32,32,33,33,34,34,35,35,36,36,37,37,38,38,39,39,40,40,41,41,42,42,43,43,44,44,45,45,46,46,47,47,49,49,50,50,51,51,52,52,53,53,54,54,55,55,57,57,58,58,59,59,61,61,62,62,63,63,64,64,65,65,66,66,67,67,68,68,69,69,70,70,71,71,72,72,73,73,74,74,75,75,76,76,77,77,78,78,79,79,80,80,81,81,82,82,83,83,84,84,85,85,86,86,87,87,88,88,89,89,90,90,91,91,92,92,93,93,94,94,95,95,96,96,97,97,98,98,99,99,100,100,101,101,102,102,103,103,104,104,105,105,106,106,107,107,108,108,109,109,110,110,111,111,112,112,113,113,114,114,115,115,116,116,117,117,118,118,119,119,120,120],"right_children":[2,4,6,8,10,12,14,16,18,20,22,24,26,28,30,32,34,36,38,40,42,44,46,48,50,52,54,56,58,60,62,64,66,68,70,72,74,76,78,80,82,84,86,88,90,92,94,96,-1,98,100,102,104,106,108,110,-1,112,114,116,-1,118,120,122,124,126,128,130,132,134,136,138,140,142,144,146,148,150,152,154,156,158,160,162,164,166,168,170,172,174,176,178,180,182,184,186,188,190,192,194,196,198,200,202,204,206,208,210,212,214,216,218,220,222,224,226,228,230,232,234,236,-1,-1,-1,-1,-1,-1,-1,-1,-1,-1,-1,-1,-1,-1,-1,-1,-1,-1,-1,-1,-1,-1,-1,-1,-1,-1,-1,-1,-1,-1,-1,-1,-1,-1,-1,-1,-1,-1,-1,-1,-1,-1,-1,-1,-1,-1,-1,-1,-1,-1,-1,-1,-1,-1,-1,-1,-1,-1,-1,-1,-1,-1,-1,-1,-1,-1,-1,-1,-1,-1,-1,-1,-1,-1,-1,-1,-1,-1,-1,-1,-1,-1,-1,-1,-1,-1,-1,-1,-1,-1,-1,-1,-1,-1,-1,-1,-1,-1,-1,-1,-1,-1,-1,-1,-1,-1,-1,-1,-1,-1,-1,-1,-1,-1,-1,-1],"split_conditions":[3E1,1.0279038E1,2E0,2E0,2E0,4E0,3E0,1E0,3E0,2E0,1E0,6E0,5E0,6E0,6E0,6E0,2E0,1E0,2E0,6E0,6E0,6E0,1E0,5E0,1.0279038E1,1.0570262E1,1.0279038E1,5E0,1.0279038E1,5E0,1.0279038E1,1.5094817E0,1E0,1.5368221E0,4E0,1E0,4E0,1E0,4E0,1.0570262E1,1E0,3E0,3E0,2E0,2E0,2.4E1,2E0,9.348462E0,-9.576902E0,2E0,2E0,1E0,1E0,1E0,1E0,1.0279038E1,-1.1174339E1,2E0,2E0,1.0279038E1,-1.0748228E1,2E0,2E0,1E0,5E0,1.5E1,2.9E1,1E0,6E0,1E0,6E0,6E0,1E0,6E0,1E0,1E0,9.435215E0,1E0,6E0,5E0,5E0,1E0,1.0427382E1,5E0,5E0,1E0,1E0,5E0,5E0,1E0,3E0,1.9890532E1,6E0,1.5E1,6E0,1E0,1E0,1E0,1E0,2.096893E1,1E0,7E0,6E0,5E0,3.5E1,1.2E1,6E0,3E0,6E0,1E0,1E0,1E0,1E0,1E0,1E0,1E0,1E0,1E0,1E0,1E0,1E0,7.502621E0,-2.1237682E-1,7.3963857E-1,-1.0136907E1,1.1654891E0,-4.6415877E-1,-1.6576924E0,2.2784774E0,2.217456E0,3.407966E-1,-1.1618983E0,9.5133114E-1,-2.6012263E0,-3.9320545E0,-5.338741E0,-4.188744E0,-4.841692E0,-3.2837818E0,-2.9945343E0,-4.789162E0,-6.365037E0,-5.385264E0,-4.097029E0,-5.332899E0,-2.5833905E0,-4.8966928E0,-5.6360126E0,-2.53276E0,-2.4576948E0,-3.6496037E-1,-4.3465905E0,-2.6967988E0,4.61087E0,-6.317559E0,6.9743466E0,-8.724711E0,1.2564099E0,7.4490814E0,1.0556486E0,6.2456055E0,-3.2813963E-1,-1.1040193E1,4.7146883E0,-1.0435969E1,-1.0962358E0,-9.556884E-3,5.0349917E0,3.3661022E0,7.453354E-1,-9.917554E0,-1.5193594E0,-1.0307601E1,1.2573315E0,-5.586167E-1,-2.5092049E0,-9.382086E-2,-2.100715E0,-7.7924955E-1,-3.645504E0,-2.2145307E0,-3.223209E0,-9.418038E-1,-5.6337676E0,-3.7869916E0,3.794167E0,3.0503197E0,9.349799E0,6.9365993E0,3.2498786E0,2.3512115E0,5.528513E0,2.5678306E0,9.569693E0,1.5628107E0,7.4117246E0,4.62469E0,-2.4174771E0,-1.1115685E0,-4.485497E0,-2.7958057E0,3.563789E0,1.1994975E0,-1.9093139E0,-3.365491E-1,3.7326684E0,6.127384E0,6.843844E-2,2.308216E0,7.5467196E0,3.3551254E0,2.60545E0,5.812953E0,-4.8130223E-1,-2.14059E0,1.385956E0,1.915592E-1,-1.7994947E0,-4.0426946E0,-2.8790203E-1,-1.4006011E0,6.0235877E0,3.510292E0,-6.372941E-1,-1.4972318E0,1.2619197E0,-1.1033176E0,5.311288E0,3.1031795E0,-1.3954687E-1,-4.087422E0,2.091971E0,8.973964E-1,7.3385506E0,6.213438E0,4.2296333E0,1.9485509E0],"split_indices":[0,6,2,2,1,1,2,3,2,2,3,5,1,5,5,5,1,3,1,5,5,5,4,5,6,6,6,5,6,5,6,6,4,6,1,4,1,3,1,6,3,2,2,2,2,0,2,6,0,1,1,3,3,3,3,6,0,1,1,6,0,1,1,4,5,5,0,4,5,4,5,5,5,5,4,4,6,3,5,5,5,2,6,5,5,3,3,5,5,4,2,6,5,5,5,3,3,4,3,6,3,5,5,5,0,5,5,4,5,3,3,3,3,3,3,3,3,3,4,3,3,0,0,0,0,0,0,0,0,0,0,0,0,0,0,0,0,0,0,0,0,0,0,0,0,0,0,0,0,0,0,0,0,0,0,0,0,0,0,0,0,0,0,0,0,0,0,0,0,0,0,0,0,0,0,0,0,0,0,0,0,0,0,0,0,0,0,0,0,0,0,0,0,0,0,0,0,0,0,0,0,0,0,0,0,0,0,0,0,0,0,0,0,0,0,0,0,0,0,0,0,0,0,0,0,0,0,0,0,0,0,0,0,0,0,0,0],"split_type":[0,0,0,0,0,0,0,0,0,0,0,0,0,0,0,0,0,0,0,0,0,0,0,0,0,0,0,0,0,0,0,0,0,0,0,0,0,0,0,0,0,0,0,0,0,0,0,0,0,0,0,0,0,0,0,0,0,0,0,0,0,0,0,0,0,0,0,0,0,0,0,0,0,0,0,0,0,0,0,0,0,0,0,0,0,0,0,0,0,0,0,0,0,0,0,0,0,0,0,0,0,0,0,0,0,0,0,0,0,0,0,0,0,0,0,0,0,0,0,0,0,0,0,0,0,0,0,0,0,0,0,0,0,0,0,0,0,0,0,0,0,0,0,0,0,0,0,0,0,0,0,0,0,0,0,0,0,0,0,0,0,0,0,0,0,0,0,0,0,0,0,0,0,0,0,0,0,0,0,0,0,0,0,0,0,0,0,0,0,0,0,0,0,0,0,0,0,0,0,0,0,0,0,0,0,0,0,0,0,0,0,0,0,0,0,0,0,0,0,0,0,0,0,0,0,0,0,0,0,0,0,0,0,0,0,0,0],"sum_hessian":[1.8023E4,8.912E3,9.111E3,4.782E3,4.13E3,3.775E3,5.336E3,1.893E3,2.889E3,1.459E3,2.671E3,2.505E3,1.27E3,3.143E3,2.193E3,1.098E3,7.95E2,1.89E3,9.99E2,6.05E2,8.54E2,1.554E3,1.117E3,9.61E2,1.544E3,6.39E2,6.31E2,1.189E3,1.954E3,8.28E2,1.365E3,4.12E2,6.86E2,2.49E2,5.46E2,1.132E3,7.58E2,3.6E2,6.39E2,2.13E2,3.92E2,3.32E2,5.22E2,5.87E2,9.67E2,7.82E2,3.35E2,8.01E2,1.6E2,7.84E2,7.6E2,3.68E2,2.71E2,3.35E2,2.96E2,1.016E3,1.73E2,1.177E3,7.77E2,7.01E2,1.27E2,6.54E2,7.11E2,5E0,4.07E2,5.02E2,1.84E2,1.4E1,2.35E2,2.55E2,2.91E2,7.41E2,3.91E2,5.27E2,2.31E2,2.11E2,1.49E2,3.37E2,3.02E2,6E0,2.07E2,2.34E2,1.58E2,1.55E2,1.77E2,2.62E2,2.6E2,2.53E2,3.34E2,4.32E2,5.35E2,2.99E2,4.83E2,1.44E2,1.91E2,4.26E2,3.75E2,4E2,3.84E2,3.69E2,3.91E2,2.12E2,1.56E2,1.44E2,1.27E2,2.02E2,1.33E2,1.84E2,1.12E2,6.18E2,3.98E2,4.12E2,7.65E2,2.65E2,5.12E2,3.37E2,3.64E2,2.12E2,4.42E2,2.25E2,4.86E2,4E0,1E0,3.2E2,8.7E1,4.48E2,5.4E1,1.63E2,2.1E1,1.2E1,2E0,8.3E1,1.52E2,1.67E2,8.8E1,1.03E2,1.88E2,2.55E2,4.86E2,2.6E1,3.65E2,1.89E2,3.38E2,1.57E2,7.4E1,1.39E2,7.2E1,1.45E2,4E0,1.77E2,1.6E2,1.2E2,1.82E2,3E0,3E0,1.82E2,2.5E1,1E0,2.33E2,1E0,1.57E2,1.3E2,2.5E1,1.41E2,3.6E1,1.69E2,9.3E1,1.41E2,1.19E2,2.06E2,4.7E1,2.79E2,5.5E1,3.38E2,9.4E1,2.76E2,2.59E2,2.5E2,4.9E1,1.79E2,3.04E2,1.34E2,1E1,6.1E1,1.3E2,2.34E2,1.92E2,2.09E2,1.66E2,3.23E2,7.7E1,2.27E2,1.57E2,3.64E2,5E0,2.34E2,1.57E2,9E1,1.22E2,5.8E1,9.8E1,3.6E1,1.08E2,6.9E1,5.8E1,1.55E2,4.7E1,4.3E1,9E1,1.6E2,2.4E1,5.1E1,6.1E1,3.78E2,2.4E2,2.3E2,1.68E2,2.49E2,1.63E2,4.61E2,3.04E2,1.54E2,1.11E2,3.04E2,2.08E2,2.08E2,1.29E2,2.18E2,1.46E2,1.22E2,9E1,3.53E2,8.9E1,1.28E2,9.7E1,2.91E2,1.95E2],"tree_param":{"num_deleted":"0","num_feature":"7","num_nodes":"237","size_leaf_vector":"1"}},{"base_weights":[1.634442E-1,-1.2017275E1,1.2202951E1,7.619338E-1,-2.1158142E1,-1.2123197E0,2.722213E1,2.4167166E1,-1.1064778E1,-3.1146175E1,-8.999033E0,-4.259782E0,1.4193896E1,4.9632366E1,1.58317375E1,4.7074044E-1,4.7111767E1,-1.1996386E0,-2.4139387E1,-3.5162323E1,-2.3648739E1,8.89029E0,-1.864578E1,1.0830732E1,-1.4343767E1,2.2699093E1,8.26655E0,6.572464E1,3.8229652E1,3.0338003E1,4.4232335E0,-4.756267E0,7.518388E0,5.1098305E1,4.079066E1,1.974912E0,-9.867362E0,-1.7551882E1,-3.0831884E1,-3.1214417E1,-4.095485E1,-2.6775904E1,-1.063131E1,-1.075387E1,2.8753935E1,-1.4221554E1,-2.849214E1,1.8757383E1,-1.9982386E1,-9.793405E0,-3.1945797E1,3.0363564E1,1.1350899E1,9.994764E-1,1.9896418E1,4.2188725E1,6.826029E1,3.1841295E1,4.543519E1,4.1028343E1,1.7275137E1,-1.0134937E1,1.8010195E1,-1.591818E1,2.778083E0,1.9309508E0,1.08113785E1,3.920442E1,5.7866215E1,3.178634E1,4.5775517E1,-7.0404134E0,7.2586293E0,-3.2340256E1,-6.944602E0,-2.2246666E1,-1.4637187E1,-4.3396946E1,-1.843497E1,-3.680172E1,-2.7824892E1,-4.6452023E1,-3.7369026E1,-2.2094885E1,-4.4520916E1,-1.7061493E1,-1.4501749E0,-2.1765494E0,-1.4744804E1,1.8912363E1,3.4922836E1,-2.0780005E1,-7.496698E0,-3.366027E1,-2.1433836E1,6.50581E0,2.6708397E1,-2.8069342E1,-1.5539481E1,-2.2979729E1,4.0328236E0,-2.2939417E1,-4.497562E1,1.3988412E1,3.5314888E1,1.6870822E0,1.673795E1,-6.0970383E0,5.0270066E0,3.61115E0,1.5183731E1,1.7085148E1,6.8035636E0,5.6191776E1,7.476543E1,3.7919178E1,2.3187988E1,3.748884E1,5.210567E1,5.20017E1,3.056481E1,2.6980373E1,6.596469E0,-1.5710451E1,-5.8195176E0,2.7080175E1,4.2800374E0,3.1959206E-1,-8.763058E0,5.286879E-1,-4.911028E-1,1.3421341E0,-8.734641E0,1.7356361E0,1.1057537E0,6.850345E0,-7.566931E0,1.1832869E0,6.7537565E0,5.2905183E0,-7.3448668E0,4.825787E0,5.8334427E0,1.1737139E0,-8.67819E0,1.2254372E0,2.2215533E-1,-6.71673E0,-2.2611744E0,1.3340994E1,-1.1520411E0,-1.6481408E0,-9.885107E0,-1.2724185E0,-2.104975E0,-5.7195415E0,-4.5808983E0,-1.1629988E0,-2.6034849E0,-2.9029715E0,-1.1007919E1,-2.9207652E0,-3.8961504E0,-4.0935364E0,-1.10716E1,-4.754093E0,-3.931778E0,-3.6733954E0,-1.4482114E0,-4.5362377E0,-5.9827065E0,-4.9946818E-1,-2.5109007E0,-1.3394816E0,5.0983876E-1,-6.128155E-1,2.0179826E-1,-9.781101E0,-7.493887E-1,4.2851186E0,-9.138742E0,4.641582E0,3.269305E0,-4.8359156E0,-1.4280944E-1,3.3783236E-1,-2.1368146E0,-4.9122386E0,-2.543999E0,-3.0664802E0,-6.0909736E-1,3.0076077E0,-8.342621E0,2.552146E0,3.666178E0,-1.5426135E0,-1.0023849E1,-1.3070518E0,-2.5883038E0,-1.5566013E0,-4.088673E0,-2.2601853E-1,1.8102385E0,-2.2503967E0,-3.743866E0,-6.12517E0,-3.4436004E0,-1.342051E0,3.2571473E0,3.5964289E0,5.6387243E0,2.5025434E0,-8.817312E0,1.7710707E0,2.3672514E0,8.2905126E-1,-9.224617E0,2.9010275E-1,9.7859466E-1,-8.813531E0,2.7470677E0,6.556152E0,-6.8596435E0,8.535005E0,-6.9629354E0,9.305917E0,7.6345415E0,5.70187E0,3.7918696E0,1.8076237E0,3.181749E0,6.072154E0,-8.193819E-1,6.5803986E0,5.420873E0,4.945867E0,6.622181E0,9.06378E-1,5.7857027E0,1.9525583E0,3.879547E0,-1.5432067E0,3.4055111E0,-9.6995634E-1,-4.382885E0,-4.048325E-1,-1.6473398E0,4.471376E0,1.7817037E0,-1.0225788E0,1.4788077E0],"categories":[],"categories_nodes":[],"categories_segments":[],"categories_sizes":[],"default_left":[0,0,0,0,0,0,0,0,0,0,0,0,0,0,0,0,0,0,0,0,0,0,0,0,0,0,0,0,0,0,0,0,0,0,0,0,0,0,0,0,0,0,0,0,0,0,0,0,0,0,0,0,0,0,0,0,0,0,0,0,0,0,0,0,0,0,0,0,0,0,0,0,0,0,0,0,0,0,0,0,0,0,0,0,0,0,0,0,0,0,0,0,0,0,0,0,0,0,0,0,0,0,0,0,0,0,0,0,0,0,0,0,0,0,0,0,0,0,0,0,0,0,0,0,0,0,0,0,0,0,0,0,0,0,0,0,0,0,0,0,0,0,0,0,0,0,0,0,0,0,0,0,0,0,0,0,0,0,0,0,0,0,0,0,0,0,0,0,0,0,0,0,0,0,0,0,0,0,0,0,0,0,0,0,0,0,0,0,0,0,0,0,0,0,0,0,0,0,0,0,0,0,0,0,0,0,0,0,0,0,0,0,0,0,0,0,0,0,0,0,0,0,0,0,0,0,0,0,0,0,0,0,0,0,0,0,0,0,0,0,0,0,0,0,0,0,0,0,0,0,0],"id":2,"left_children":[1,3,5,7,9,11,13,15,17,19,21,23,25,27,29,31,33,35,37,39,41,43,45,47,49,51,53,55,57,59,61,63,65,67,69,71,73,75,77,79,81,83,85,87,89,91,93,95,97,99,101,103,105,107,109,111,113,115,117,119,121,123,125,127,129,131,133,135,137,139,141,143,145,147,149,151,153,155,157,159,161,163,165,167,169,171,173,175,177,179,181,183,185,187,189,191,193,195,197,199,201,203,205,207,209,211,213,215,217,-1,219,221,-1,223,225,227,229,231,233,235,237,239,241,243,245,247,249,-1,-1,-1,-1,-1,-1,-1,-1,-1,-1,-1,-1,-1,-1,-1,-1,-1,-1,-1,-1,-1,-1,-1,-1,-1,-1,-1,-1,-1,-1,-1,-1,-1,-1,-1,-1,-1,-1,-1,-1,-1,-1,-1,-1,-1,-1,-1,-1,-1,-1,-1,-1,-1,-1,-1,-1,-1,-1,-1,-1,-1,-1,-1,-1,-1,-1,-1,-1,-1,-1,-1,-1,-1,-1,-1,-1,-1,-1,-1,-1,-1,-1,-1,-1,-1,-1,-1,-1,-1,-1,-1,-1,-1,-1,-1,-1,-1,-1,-1,-1,-1,-1,-1,-1,-1,-1,-1,-1,-1,-1,-1,-1,-1,-1,-1,-1,-1,-1,-1,-1,-1,-1,-1,-1],"loss_changes":[2.6162335E6,1.0359141E6,1.8077686E6,1.0241763E6,6.275935E5,2.226028E5,1.0797358E6,6.7525944E5,3.170109E5,8.4623E4,4.027804E5,6.024541E5,3.9285938E4,2.59152E5,4.645752E5,2.258068E4,1.38165E4,3.8597098E4,4.6058625E4,4.09365E4,4.0138E4,3.194966E5,6.563556E4,3.8774706E5,1.8975403E5,2.757525E4,3.9110605E4,3.23305E4,3.708175E4,1.7189438E5,3.1132397E5,2.9646633E4,4.7813633E3,2.8561688E4,9.7214375E3,4.8971664E4,2.4472172E4,6.9952344E3,8.066666E4,1.9846125E4,1.29495E4,6.5468125E4,1.14283125E4,1.4071293E4,2.4049188E4,4.606586E4,1.6386812E4,1.2276069E5,1.124093E4,3.4412512E5,5.6118438E4,1.4992031E4,6.7915527E3,8.204938E3,8.863102E3,2.349414E4,3.748625E4,2.2630125E4,1.8771875E4,7.6373375E4,5.765258E4,1.8194688E4,1.0125334E5,1.5754167E5,2.6234072E3,7.3274945E4,7.403008E2,2.9457038E5,1.208E3,1.2215611E5,8.82375E2,4.4007312E5,1.1313672E4,1.296391E4,1.210133E5,1.0169667E5,4.055711E3,4.0755312E3,8.573969E3,2.806498E5,9.807125E3,1.5590631E5,4.3084375E3,5.7616562E4,4.3324062E3,6.4730195E3,4.7999985E3,1.6030891E3,1.6118461E5,2.8018966E5,7.311375E3,2.1514675E5,5.86702E4,2.6199406E4,1.5852719E4,7.545248E5,1.682775E4,9.6904445E4,5.870043E3,1.1225097E5,6.3483453E4,9.024781E3,2.1744781E4,1.674916E4,6.9705312E3,7.52711E4,1.5089062E2,1.01135984E5,1.5469453E3,0E0,9.895108E4,7.7890195E4,0E0,3.8203275E5,1.1020375E4,1.3835969E4,5.514117E3,1.1931505E5,2.5125E3,1.29308125E4,1.522075E5,1.836175E4,1.2051314E5,5.327043E4,8.340974E3,6.4796062E4,3.588328E4,0E0,0E0,0E0,0E0,0E0,0E0,0E0,0E0,0E0,0E0,0E0,0E0,0E0,0E0,0E0,0E0,0E0,0E0,0E0,0E0,0E0,0E0,0E0,0E0,0E0,0E0,0E0,0E0,0E0,0E0,0E0,0E0,0E0,0E0,0E0,0E0,0E0,0E0,0E0,0E0,0E0,0E0,0E0,0E0,0E0,0E0,0E0,0E0,0E0,0E0,0E0,0E0,0E0,0E0,0E0,0E0,0E0,0E0,0E0,0E0,0E0,0E0,0E0,0E0,0E0,0E0,0E0,0E0,0E0,0E0,0E0,0E0,0E0,0E0,0E0,0E0,0E0,0E0,0E0,0E0,0E0,0E0,0E0,0E0,0E0,0E0,0E0,0E0,0E0,0E0,0E0,0E0,0E0,0E0,0E0,0E0,0E0,0E0,0E0,0E0,0E0,0E0,0E0,0E0,0E0,0E0,0E0,0E0,0E0,0E0,0E0,0E0,0E0,0E0,0E0,0E0,0E0,0E0,0E0,0E0,0E0,0E0,0E0,0E0],"parents":[2147483647,0,0,1,1,2,2,3,3,4,4,5,5,6,6,7,7,8,8,9,9,10,10,11,11,12,12,13,13,14,14,15,15,16,16,17,17,18,18,19,19,20,20,21,21,22,22,23,23,24,24,25,25,26,26,27,27,28,28,29,29,30,30,31,31,32,32,33,33,34,34,35,35,36,36,37,37,38,38,39,39,40,40,41,41,42,42,43,43,44,44,45,45,46,46,47,47,48,48,49,49,50,50,51,51,52,52,53,53,54,54,55,55,56,56,57,57,58,58,59,59,60,60,61,61,62,62,63,63,64,64,65,65,66,66,67,67,68,68,69,69,70,70,71,71,72,72,73,73,74,74,75,75,76,76,77,77,78,78,79,79,80,80,81,81,82,82,83,83,84,84,85,85,86,86,87,87,88,88,89,89,90,90,91,91,92,92,93,93,94,94,95,95,96,96,97,97,98,98,99,99,100,100,101,101,102,102,103,103,104,104,105,105,106,106,107,107,108,108,110,110,111,111,113,113,114,114,115,115,116,116,117,117,118,118,119,119,120,120,121,121,122,122,123,123,124,124,125,125,126,126],"right_children":[2,4,6,8,10,12,14,16,18,20,22,24,26,28,30,32,34,36,38,40,42,44,46,48,50,52,54,56,58,60,62,64,66,68,70,72,74,76,78,80,82,84,86,88,90,92,94,96,98,100,102,104,106,108,110,112,114,116,118,120,122,124,126,128,130,132,134,136,138,140,142,144,146,148,150,152,154,156,158,160,162,164,166,168,170,172,174,176,178,180,182,184,186,188,190,192,194,196,198,200,202,204,206,208,210,212,214,216,218,-1,220,222,-1,224,226,228,230,232,234,236,238,240,242,244,246,248,250,-1,-1,-1,-1,-1,-1,-1,-1,-1,-1,-1,-1,-1,-1,-1,-1,-1,-1,-1,-1,-1,-1,-1,-1,-1,-1,-1,-1,-1,-1,-1,-1,-1,-1,-1,-1,-1,-1,-1,-1,-1,-1,-1,-1,-1,-1,-1,-1,-1,-1,-1,-1,-1,-1,-1,-1,-1,-1,-1,-1,-1,-1,-1,-1,-1,-1,-1,-1,-1,-1,-1,-1,-1,-1,-1,-1,-1,-1,-1,-1,-1,-1,-1,-1,-1,-1,-1,-1,-1,-1,-1,-1,-1,-1,-1,-1,-1,-1,-1,-1,-1,-1,-1,-1,-1,-1,-1,-1,-1,-1,-1,-1,-1,-1,-1,-1,-1,-1,-1,-1,-1,-1,-1,-1],"split_conditions":[3E1,2E0,9.435215E0,2E0,1.0279038E1,5E0,2E0,1.0279038E1,1E0,3E0,2E0,2E0,2E0,2E0,2E0,1E0,1E0,1E0,4E0,1E0,5E0,3E0,1E0,4E0,4E0,1E0,3E0,1.072416E1,3E0,1E0,3E0,6E0,6E0,6E0,6E0,6E0,2E0,6E0,5E0,6E0,6E0,4E0,1E0,5E0,6E0,4E0,3E0,6E0,6E0,2E0,1E0,3.2E1,6E0,6E0,5E0,6E0,6E0,1E0,7E0,4E0,4E0,7E0,1E0,5E0,1.4E1,5E0,2.2E1,5E0,1E0,5E0,1.2E1,5E0,2.6E1,6E0,3E0,5E0,3E0,6E0,5E0,5E0,1E0,5E0,3E0,2E0,1E0,5E0,6E0,1E0,6E0,5E0,1E0,3E0,5E0,4E0,5E0,5E0,2E0,5E0,1E0,1E0,3E0,1E0,3E0,6E0,1.2E1,5E0,3.7E1,5E0,1.2E1,3.61115E0,6E0,5E0,6.8035636E0,5E0,1E0,5E0,6E0,5E0,1E0,6E0,5E0,6E0,5E0,5E0,2E0,4E0,6E0,3.1959206E-1,-8.763058E0,5.286879E-1,-4.911028E-1,1.3421341E0,-8.734641E0,1.7356361E0,1.1057537E0,6.850345E0,-7.566931E0,1.1832869E0,6.7537565E0,5.2905183E0,-7.3448668E0,4.825787E0,5.8334427E0,1.1737139E0,-8.67819E0,1.2254372E0,2.2215533E-1,-6.71673E0,-2.2611744E0,1.3340994E1,-1.1520411E0,-1.6481408E0,-9.885107E0,-1.2724185E0,-2.104975E0,-5.7195415E0,-4.5808983E0,-1.1629988E0,-2.6034849E0,-2.9029715E0,-1.1007919E1,-2.9207652E0,-3.8961504E0,-4.0935364E0,-1.10716E1,-4.754093E0,-3.931778E0,-3.6733954E0,-1.4482114E0,-4.5362377E0,-5.9827065E0,-4.9946818E-1,-2.5109007E0,-1.3394816E0,5.0983876E-1,-6.128155E-1,2.0179826E-1,-9.781101E0,-7.493887E-1,4.2851186E0,-9.138742E0,4.641582E0,3.269305E0,-4.8359156E0,-1.4280944E-1,3.3783236E-1,-2.1368146E0,-4.9122386E0,-2.543999E0,-3.0664802E0,-6.0909736E-1,3.0076077E0,-8.342621E0,2.552146E0,3.666178E0,-1.5426135E0,-1.0023849E1,-1.3070518E0,-2.5883038E0,-1.5566013E0,-4.088673E0,-2.2601853E-1,1.8102385E0,-2.2503967E0,-3.743866E0,-6.12517E0,-3.4436004E0,-1.342051E0,3.2571473E0,3.5964289E0,5.6387243E0,2.5025434E0,-8.817312E0,1.7710707E0,2.3672514E0,8.2905126E-1,-9.224617E0,2.9010275E-1,9.7859466E-1,-8.813531E0,2.7470677E0,6.556152E0,-6.8596435E0,8.535005E0,-6.9629354E0,9.305917E0,7.6345415E0,5.70187E0,3.7918696E0,1.8076237E0,3.181749E0,6.072154E0,-8.193819E-1,6.5803986E0,5.420873E0,4.945867E0,6.622181E0,9.06378E-1,5.7857027E0,1.9525583E0,3.879547E0,-1.5432067E0,3.4055111E0,-9.6995634E-1,-4.382885E0,-4.048325E-1,-1.6473398E0,4.471376E0,1.7817037E0,-1.0225788E0,1.4788077E0],"split_indices":[0,2,6,1,6,1,1,6,3,2,1,2,2,2,2,3,3,4,1,3,1,2,4,1,1,3,2,6,2,3,2,5,5,5,5,5,4,5,1,5,5,1,3,5,5,1,2,5,5,1,3,0,5,5,5,5,5,3,5,1,1,5,3,5,5,5,0,5,2,5,5,5,0,5,4,5,1,5,5,5,4,5,1,1,3,5,5,3,5,5,3,2,1,1,1,5,1,5,3,3,2,4,2,5,5,5,0,5,5,0,5,5,0,5,3,5,5,5,3,5,1,5,1,5,4,1,5,0,0,0,0,0,0,0,0,0,0,0,0,0,0,0,0,0,0,0,0,0,0,0,0,0,0,0,0,0,0,0,0,0,0,0,0,0,0,0,0,0,0,0,0,0,0,0,0,0,0,0,0,0,0,0,0,0,0,0,0,0,0,0,0,0,0,0,0,0,0,0,0,0,0,0,0,0,0,0,0,0,0,0,0,0,0,0,0,0,0,0,0,0,0,0,0,0,0,0,0,0,0,0,0,0,0,0,0,0,0,0,0,0,0,0,0,0,0,0,0,0,0,0,0],"split_type":[0,0,0,0,0,0,0,0,0,0,0,0,0,0,0,0,0,0,0,0,0,0,0,0,0,0,0,0,0,0,0,0,0,0,0,0,0,0,0,0,0,0,0,0,0,0,0,0,0,0,0,0,0,0,0,0,0,0,0,0,0,0,0,0,0,0,0,0,0,0,0,0,0,0,0,0,0,0,0,0,0,0,0,0,0,0,0,0,0,0,0,0,0,0,0,0,0,0,0,0,0,0,0,0,0,0,0,0,0,0,0,0,0,0,0,0,0,0,0,0,0,0,0,0,0,0,0,0,0,0,0,0,0,0,0,0,0,0,0,0,0,0,0,0,0,0,0,0,0,0,0,0,0,0,0,0,0,0,0,0,0,0,0,0,0,0,0,0,0,0,0,0,0,0,0,0,0,0,0,0,0,0,0,0,0,0,0,0,0,0,0,0,0,0,0,0,0,0,0,0,0,0,0,0,0,0,0,0,0,0,0,0,0,0,0,0,0,0,0,0,0,0,0,0,0,0,0,0,0,0,0,0,0,0,0,0,0,0,0,0,0,0,0,0,0,0,0,0,0,0,0],"sum_hessian":[1.7838E4,8.867E3,8.971E3,3.698E3,5.169E3,4.739E3,4.232E3,1.241E3,2.457E3,2.837E3,2.332E3,3.957E3,7.82E2,1.425E3,2.807E3,6.11E2,6.3E2,1.401E3,1.056E3,1.845E3,9.92E2,8.17E2,1.515E3,1.585E3,2.372E3,3.2E2,4.62E2,5.89E2,8.36E2,1.235E3,1.572E3,3.51E2,2.6E2,3.82E2,2.48E2,1.026E3,3.75E2,5.34E2,5.22E2,1.101E3,7.44E2,7.99E2,1.93E2,4.11E2,4.06E2,1.047E3,4.68E2,1.261E3,3.24E2,1.886E3,4.86E2,1.9E2,1.3E2,2.85E2,1.77E2,5.9E1,5.3E2,4.46E2,3.9E2,6.78E2,5.57E2,7.59E2,8.13E2,1.41E2,2.1E2,9.7E1,1.63E2,1.41E2,2.41E2,9.1E1,1.57E2,3.79E2,6.47E2,4.2E1,3.33E2,2.02E2,3.32E2,2.58E2,2.64E2,4.12E2,6.89E2,2.89E2,4.55E2,6.34E2,1.65E2,1.13E2,8E1,1.31E2,2.8E2,1.58E2,2.48E2,5.29E2,5.18E2,2.68E2,2E2,4.97E2,7.64E2,1.13E2,2.11E2,9.65E2,9.21E2,2.89E2,1.97E2,4.5E1,1.45E2,4.7E1,8.3E1,1.03E2,1.82E2,5.1E1,1.26E2,2.4E1,3.5E1,1.89E2,3.41E2,2.6E2,1.86E2,1.81E2,2.09E2,3.29E2,3.49E2,2.91E2,2.66E2,3.3E2,4.29E2,4.89E2,3.24E2,1.08E2,3.3E1,1.68E2,4.2E1,8.7E1,1E1,3.7E1,1.26E2,1.19E2,2.2E1,1E0,2.4E2,8E1,1.1E1,8.4E1,7.3E1,3.03E2,7.6E1,4.01E2,2.46E2,1.3E1,2.9E1,7E0,3.26E2,1.8E2,2.2E1,1.62E2,1.7E2,1.02E2,1.56E2,8.5E1,1.79E2,3.43E2,6.9E1,4.68E2,2.21E2,2.36E2,5.3E1,2.26E2,2.29E2,3.19E2,3.15E2,9.5E1,7E1,3E1,8.3E1,2.9E1,5.1E1,7.3E1,5.8E1,2.9E1,2.51E2,1.34E2,2.4E1,1.41E2,1.07E2,2.56E2,2.73E2,2.65E2,2.53E2,1.54E2,1.14E2,1.53E2,4.7E1,3.99E2,9.8E1,3.85E2,3.79E2,9.1E1,2.2E1,1.3E2,8.1E1,5.4E2,4.25E2,6.07E2,3.14E2,2.1E2,7.9E1,1.3E2,6.7E1,1.6E1,2.9E1,1.11E2,3.4E1,3.8E1,9E0,6.2E1,2.1E1,8.8E1,1.5E1,1.05E2,7.7E1,1E1,1.16E2,1.6E1,8E0,1.65E2,2.4E1,2.13E2,1.28E2,8.2E1,1.78E2,6.7E1,1.19E2,1.36E2,4.5E1,1.11E2,9.8E1,1.15E2,2.14E2,1.6E2,1.89E2,1.13E2,1.78E2,1.42E2,1.24E2,2.48E2,8.2E1,3.36E2,9.3E1,2.48E2,2.41E2,1.27E2,1.97E2],"tree_param":{"num_deleted":"0","num_feature":"7","num_nodes":"251","size_leaf_vector":"1"}},{"base_weights":[-2.628743E-1,-1.1156533E1,1.0536809E1,-1.970122E1,-1.0119466E0,2.4915653E1,3.8824007E-1,-7.7710485E0,-2.7553041E1,2.2163317E1,-1.3019792E1,1.3569201E1,3.6712772E1,-9.476523E0,1.2861248E1,-1.6793076E0,-1.6207165E1,-3.1459114E1,-2.021844E1,4.0170784E1,9.057815E0,-8.919394E0,-2.2816572E1,4.997134E0,1.8912458E1,2.4870327E1,4.3626667E1,-4.3195434E0,-1.662627E1,2.6641316E0,2.4284409E1,-8.271869E0,3.23701E0,4.4881697E0,-2.5998573E1,-3.7022594E1,-2.8044968E1,-2.2859926E1,-6.7506995E0,3.054503E1,4.6296494E1,-7.1510553E0,2.4314362E1,-1.6434286E1,-4.2365804E0,-2.9967474E1,-1.8193636E1,1.8538517E1,-6.958462E1,2.4297174E1,9.282193E0,4.8830776E1,-7.846621E1,6.3997036E1,3.3411358E1,-1.2487292E1,6.7377734E-1,-3.1594337E1,-7.7278457E0,2.6013721E1,-9.705791E0,4.264339E1,1.5705779E1,2.2964804E0,-3.3443687E1,-2.3139164E0,1.3514007E1,-4.4764323E0,8.91921E0,-3.2116146E1,-2.238325E1,-2.6122992E1,-9.872866E0,-2.5687029E1,-3.2631786E1,-1.8587494E1,-3.864313E1,1.9773282E0,-1.053974E1,4.511099E1,-6.8279195E0,6.1081356E1,4.514665E1,3.193793E-1,-9.5919695E0,1.1589812E1,3.1693115E1,-4.117963E0,-8.9268875E0,1.5344625E0,-9.566208E0,-1.843957E1,-9.304442E0,-1.5871589E1,-2.2869345E1,1.5966091E1,3.023711E1,-7.4335E0,-9.088168E0,2.0399954E1,2.8750116E1,-1.102577E1,3.0128748E1,6.676299E1,3.943493E1,-6.318273E0,-1.0341303E1,6.502912E1,7.231476E0,4.189669E1,2.4905525E1,1.3263669E0,-9.659813E0,-3.9260004E0,9.48296E0,-3.8307083E1,-3.1987762E0,1.2207667E0,-1.762299E1,1.6457651E1,3.119807E1,-3.2819014E0,-1.2125557E1,4.293216E1,-3.40037E0,3.2832623E0,2.3419378E1,6.1027884E-1,-8.3264214E-1,-8.102206E0,-5.293129E-1,3.7581173E-1,-8.5461706E-1,4.590717E0,-1.0835629E0,9.0721154E-1,-8.033257E0,8.5006756E-1,1.7933745E0,-2.4110003E0,-9.592283E0,-2.7301524E0,-2.9514796E-1,-2.7583563E0,-3.4943044E0,-2.8977158E0,-3.1980731E0,-3.9824626E0,-3.3852978E0,-3.1310897E0,-1.1751801E0,-5.7196827E0,-3.8294058E0,-2.7144303E0,3.4112224E-1,-9.8301735E0,-3.3919936E-1,3.2938063E0,5.3693614E0,7.2617E0,1.884805E0,5.2889204E0,1.1232588E0,7.213466E-1,-2.1990463E-1,-4.1246443E0,-5.4878014E-1,3.802858E0,-8.201593E0,3.7231538E0,-2.636358E0,-5.473613E-1,7.623207E-1,7.519732E-1,-4.779563E-1,-1.7610835E0,-4.000201E-1,-1.1376026E0,-2.9727702E0,-1.9364761E0,6.581955E-1,3.7980843E0,-2.7269166E0,2.5416577E0,-1.1285754E0,3.1674995E0,4.9632807E0,4.36338E0,2.2868733E0,3.2202125E0,5.7738943E0,-1.0297606E0,-1.9851648E0,5.57001E0,3.3187628E0,2.4592848E0,7.902909E0,4.097614E0,5.8855033E0,7.7475414E0,6.115177E0,2.1189593E-2,1.3298384E0,5.204399E0,4.0623145E0,5.654136E-1,5.5924544E0,-1.1810867E0,7.293215E-1,-1.2436968E0,-3.869446E-2,1.22706436E-1,1.6350791E0,-3.365937E0,-9.770226E0,-8.3599997E-1,6.861813E-1,-4.433781E0,3.0389708E-1,4.139175E0,-8.158516E0,3.2068186E0,4.0869536E0,-1.3303795E-1,-1.140101E0,-4.984584E0,-7.8934884E-1,4.254275E0,5.3664737E0,2.8285048E0,-9.890514E0,3.4234755E0,1.9732888E0],"categories":[],"categories_nodes":[],"categories_segments":[],"categories_sizes":[],"default_left":[0,0,0,0,0,0,0,0,0,0,0,0,0,0,0,0,0,0,0,0,0,0,0,0,0,0,0,0,0,0,0,0,0,0,0,0,0,0,0,0,0,0,0,0,0,0,0,0,0,0,0,0,0,0,0,0,0,0,0,0,0,0,0,0,0,0,0,0,0,0,0,0,0,0,0,0,0,0,0,0,0,0,0,0,0,0,0,0,0,0,0,0,0,0,0,0,0,0,0,0,0,0,0,0,0,0,0,0,0,0,0,0,0,0,0,0,0,0,0,0,0,0,0,0,0,0,0,0,0,0,0,0,0,0,0,0,0,0,0,0,0,0,0,0,0,0,0,0,0,0,0,0,0,0,0,0,0,0,0,0,0,0,0,0,0,0,0,0,0,0,0,0,0,0,0,0,0,0,0,0,0,0,0,0,0,0,0,0,0,0,0,0,0,0,0,0,0,0,0,0,0,0,0,0,0,0,0,0,0,0,0,0,0,0,0,0,0,0,0,0,0,0,0,0,0,0,0,0,0,0,0,0,0],"id":3,"left_children":[1,3,5,7,9,11,13,15,17,19,21,23,25,27,29,31,33,35,37,39,41,43,45,47,49,51,53,55,57,59,61,63,65,67,69,71,73,75,77,79,81,83,85,87,89,91,93,95,97,99,101,103,105,107,109,111,113,115,117,119,121,123,125,127,129,131,133,135,137,139,141,143,-1,145,147,149,151,153,155,157,-1,159,161,163,165,167,169,171,-1,173,175,177,-1,179,181,183,185,-1,-1,187,189,191,193,195,197,-1,-1,199,201,203,205,207,-1,209,211,213,-1,215,217,219,221,223,225,227,-1,229,231,-1,-1,-1,-1,-1,-1,-1,-1,-1,-1,-1,-1,-1,-1,-1,-1,-1,-1,-1,-1,-1,-1,-1,-1,-1,-1,-1,-1,-1,-1,-1,-1,-1,-1,-1,-1,-1,-1,-1,-1,-1,-1,-1,-1,-1,-1,-1,-1,-1,-1,-1,-1,-1,-1,-1,-1,-1,-1,-1,-1,-1,-1,-1,-1,-1,-1,-1,-1,-1,-1,-1,-1,-1,-1,-1,-1,-1,-1,-1,-1,-1,-1,-1,-1,-1,-1,-1,-1,-1,-1,-1,-1,-1,-1,-1,-1,-1,-1,-1,-1,-1,-1,-1,-1,-1,-1],"loss_changes":[2.1176652E6,7.7674025E5,1.3190034E6,4.5541438E5,1.1407004E6,5.00121E5,6.5225125E5,9.9259484E4,8.339275E4,3.297958E5,1.0825741E5,8.729719E4,1.489965E5,1.0906666E5,2.726227E5,3.642447E4,1.6425225E5,3.5279375E4,3.6203156E4,3.3316E4,2.0072719E5,6.696892E4,2.5769094E4,7.42586E5,6.070553E4,1.6825525E6,2.3841325E5,7.0198E4,1.6491419E5,3.5782728E5,1.7320462E5,1.2776861E5,3.676944E4,1.0407504E4,1.1445469E4,3.7495612E5,1.20213125E4,5.686928E4,5.6098135E3,3.0409388E5,3.3285E3,7.1875312E3,3.8879234E4,5.4219356E5,3.615475E4,1.7766878E5,4.913625E3,1.8235547E4,5.05875E2,1.2481156E4,1.7940969E5,9.0204375E4,2.7300812E4,2.2085625E4,5.4675562E4,6.360497E5,4.335341E4,1.1704281E4,6.900025E4,2.0740094E4,1.2551094E4,8.5373125E3,7.217314E4,9.476414E3,1.4806989E5,1.1700707E4,1.3408875E5,6.943328E4,1.7224854E3,1.14136375E5,7.3637656E3,4.8752188E3,0E0,4.3540625E2,1.2501562E3,4.729936E4,9.295594E3,1.3223296E3,6.626187E4,2.1164062E3,0E0,3.3652344E2,3.03E3,1.2839025E3,3.726868E4,2.7040294E5,4.92425E3,3.821329E3,0E0,1.5724757E4,2.0783902E4,1.5378617E4,0E0,5.494039E3,5.686414E3,7.732941E4,3.0040938E3,0E0,0E0,4.4760938E3,6.5247188E3,2.6736133E3,4.6255312E3,8.2723125E3,1.5362125E4,0E0,0E0,3.731E3,2.344007E2,6.0218125E3,1.7976114E5,3.106161E4,0E0,1.7070781E4,1.4103645E4,7.169745E4,0E0,1.6146048E4,1.533325E5,2.5544167E5,2.9870625E3,3.0953289E3,9.6172734E4,5.400875E3,0E0,5.399525E5,1.7519297E4,0E0,0E0,0E0,0E0,0E0,0E0,0E0,0E0,0E0,0E0,0E0,0E0,0E0,0E0,0E0,0E0,0E0,0E0,0E0,0E0,0E0,0E0,0E0,0E0,0E0,0E0,0E0,0E0,0E0,0E0,0E0,0E0,0E0,0E0,0E0,0E0,0E0,0E0,0E0,0E0,0E0,0E0,0E0,0E0,0E0,0E0,0E0,0E0,0E0,0E0,0E0,0E0,0E0,0E0,0E0,0E0,0E0,0E0,0E0,0E0,0E0,0E0,0E0,0E0,0E0,0E0,0E0,0E0,0E0,0E0,0E0,0E0,0E0,0E0,0E0,0E0,0E0,0E0,0E0,0E0,0E0,0E0,0E0,0E0,0E0,0E0,0E0,0E0,0E0,0E0,0E0,0E0,0E0,0E0,0E0,0E0,0E0,0E0,0E0,0E0,0E0,0E0,0E0,0E0,0E0,0E0],"parents":[2147483647,0,0,1,1,2,2,3,3,4,4,5,5,6,6,7,7,8,8,9,9,10,10,11,11,12,12,13,13,14,14,15,15,16,16,17,17,18,18,19,19,20,20,21,21,22,22,23,23,24,24,25,25,26,26,27,27,28,28,29,29,30,30,31,31,32,32,33,33,34,34,35,35,36,36,37,37,38,38,39,39,40,40,41,41,42,42,43,43,44,44,45,45,46,46,47,47,48,48,49,49,50,50,51,51,52,52,53,53,54,54,55,55,56,56,57,57,58,58,59,59,60,60,61,61,62,62,63,63,64,64,65,65,66,66,67,67,68,68,69,69,70,70,71,71,73,73,74,74,75,75,76,76,77,77,78,78,79,79,81,81,82,82,83,83,84,84,85,85,86,86,87,87,89,89,90,90,91,91,93,93,94,94,95,95,96,96,99,99,100,100,101,101,102,102,103,103,104,104,107,107,108,108,109,109,110,110,111,111,113,113,114,114,115,115,117,117,118,118,119,119,120,120,121,121,122,122,123,123,125,125,126,126],"right_children":[2,4,6,8,10,12,14,16,18,20,22,24,26,28,30,32,34,36,38,40,42,44,46,48,50,52,54,56,58,60,62,64,66,68,70,72,74,76,78,80,82,84,86,88,90,92,94,96,98,100,102,104,106,108,110,112,114,116,118,120,122,124,126,128,130,132,134,136,138,140,142,144,-1,146,148,150,152,154,156,158,-1,160,162,164,166,168,170,172,-1,174,176,178,-1,180,182,184,186,-1,-1,188,190,192,194,196,198,-1,-1,200,202,204,206,208,-1,210,212,214,-1,216,218,220,222,224,226,228,-1,230,232,-1,-1,-1,-1,-1,-1,-1,-1,-1,-1,-1,-1,-1,-1,-1,-1,-1,-1,-1,-1,-1,-1,-1,-1,-1,-1,-1,-1,-1,-1,-1,-1,-1,-1,-1,-1,-1,-1,-1,-1,-1,-1,-1,-1,-1,-1,-1,-1,-1,-1,-1,-1,-1,-1,-1,-1,-1,-1,-1,-1,-1,-1,-1,-1,-1,-1,-1,-1,-1,-1,-1,-1,-1,-1,-1,-1,-1,-1,-1,-1,-1,-1,-1,-1,-1,-1,-1,-1,-1,-1,-1,-1,-1,-1,-1,-1,-1,-1,-1,-1,-1,-1,-1,-1,-1,-1],"split_conditions":[3E1,1.0427382E1,2E0,2E0,2E0,9.435215E0,1.0279038E1,1E0,3E0,2E0,1E0,6E0,6E0,1E0,3E0,7E0,2E0,6E0,5E0,6E0,3E0,6E0,6E0,5E0,4E0,5E0,2E0,6E0,2E0,2E0,2E0,5E0,4E0,6E0,6E0,5E0,1E0,4E0,5E0,5E0,1.064194E1,4E0,6E0,5E0,2E0,5E0,1.682208E1,5E0,4E0,2E0,5E0,2E0,2E0,2.096893E1,4E0,5E0,3E0,6E0,4E0,6E0,4E0,2.096893E1,6E0,2E0,6E0,2E0,5E0,5E0,7.763497E0,5E0,9.315759E0,1E0,-9.872866E0,4.610397E0,2.7E1,2E0,6E0,4.4768395E0,6E0,1.064194E1,-6.8279195E0,2.9E1,2.096893E1,1.2419727E1,6E0,5E0,2.096893E1,2.0442959E1,-8.9268875E0,4E0,4E0,2E0,-9.304442E0,1.6659914E1,1E0,4E0,1E0,-7.4335E0,-9.088168E0,1.5125707E0,9.315037E0,1E0,1.5439354E0,1.0279038E1,5E0,-6.318273E0,-1.0341303E1,3E0,1E0,3.7E1,5E0,2E0,-9.659813E0,2E0,2E0,5E0,-3.1987762E0,6E0,5E0,5E0,1.1E1,1.729789E1,6E0,6E0,-3.40037E0,5E0,4E0,6.1027884E-1,-8.3264214E-1,-8.102206E0,-5.293129E-1,3.7581173E-1,-8.5461706E-1,4.590717E0,-1.0835629E0,9.0721154E-1,-8.033257E0,8.5006756E-1,1.7933745E0,-2.4110003E0,-9.592283E0,-2.7301524E0,-2.9514796E-1,-2.7583563E0,-3.4943044E0,-2.8977158E0,-3.1980731E0,-3.9824626E0,-3.3852978E0,-3.1310897E0,-1.1751801E0,-5.7196827E0,-3.8294058E0,-2.7144303E0,3.4112224E-1,-9.8301735E0,-3.3919936E-1,3.2938063E0,5.3693614E0,7.2617E0,1.884805E0,5.2889204E0,1.1232588E0,7.213466E-1,-2.1990463E-1,-4.1246443E0,-5.4878014E-1,3.802858E0,-8.201593E0,3.7231538E0,-2.636358E0,-5.473613E-1,7.623207E-1,7.519732E-1,-4.779563E-1,-1.7610835E0,-4.000201E-1,-1.1376026E0,-2.9727702E0,-1.9364761E0,6.581955E-1,3.7980843E0,-2.7269166E0,2.5416577E0,-1.1285754E0,3.1674995E0,4.9632807E0,4.36338E0,2.2868733E0,3.2202125E0,5.7738943E0,-1.0297606E0,-1.9851648E0,5.57001E0,3.3187628E0,2.4592848E0,7.902909E0,4.097614E0,5.8855033E0,7.7475414E0,6.115177E0,2.1189593E-2,1.3298384E0,5.204399E0,4.0623145E0,5.654136E-1,5.5924544E0,-1.1810867E0,7.293215E-1,-1.2436968E0,-3.869446E-2,1.22706436E-1,1.6350791E0,-3.365937E0,-9.770226E0,-8.3599997E-1,6.861813E-1,-4.433781E0,3.0389708E-1,4.139175E0,-8.158516E0,3.2068186E0,4.0869536E0,-1.3303795E-1,-1.140101E0,-4.984584E0,-7.8934884E-1,4.254275E0,5.3664737E0,2.8285048E0,-9.890514E0,3.4234755E0,1.9732888E0],"split_indices":[0,6,2,2,1,6,6,3,2,2,4,5,5,3,2,5,1,5,1,5,2,5,5,5,1,5,1,5,1,1,1,5,1,5,5,5,4,1,5,5,6,5,5,5,2,5,6,1,1,1,1,1,1,6,1,5,2,5,1,5,5,6,5,4,5,1,1,5,6,5,6,4,0,6,0,1,5,6,5,6,0,0,6,6,5,5,6,6,0,1,1,2,0,6,2,1,4,0,0,6,6,4,6,6,1,0,0,4,1,0,1,1,0,1,1,5,0,5,1,5,5,6,5,5,0,5,1,0,0,0,0,0,0,0,0,0,0,0,0,0,0,0,0,0,0,0,0,0,0,0,0,0,0,0,0,0,0,0,0,0,0,0,0,0,0,0,0,0,0,0,0,0,0,0,0,0,0,0,0,0,0,0,0,0,0,0,0,0,0,0,0,0,0,0,0,0,0,0,0,0,0,0,0,0,0,0,0,0,0,0,0,0,0,0,0,0,0,0,0,0,0,0,0,0,0,0,0,0,0,0,0,0,0],"split_type":[0,0,0,0,0,0,0,0,0,0,0,0,0,0,0,0,0,0,0,0,0,0,0,0,0,0,0,0,0,0,0,0,0,0,0,0,0,0,0,0,0,0,0,0,0,0,0,0,0,0,0,0,0,0,0,0,0,0,0,0,0,0,0,0,0,0,0,0,0,0,0,0,0,0,0,0,0,0,0,0,0,0,0,0,0,0,0,0,0,0,0,0,0,0,0,0,0,0,0,0,0,0,0,0,0,0,0,0,0,0,0,0,0,0,0,0,0,0,0,0,0,0,0,0,0,0,0,0,0,0,0,0,0,0,0,0,0,0,0,0,0,0,0,0,0,0,0,0,0,0,0,0,0,0,0,0,0,0,0,0,0,0,0,0,0,0,0,0,0,0,0,0,0,0,0,0,0,0,0,0,0,0,0,0,0,0,0,0,0,0,0,0,0,0,0,0,0,0,0,0,0,0,0,0,0,0,0,0,0,0,0,0,0,0,0,0,0,0,0,0,0,0,0,0,0,0,0,0,0,0,0,0,0],"sum_hessian":[1.7998E4,8.96E3,9.038E3,4.863E3,4.097E3,3.739E3,5.299E3,1.931E3,2.932E3,1.398E3,2.699E3,1.907E3,1.832E3,2.959E3,2.34E3,1.122E3,8.09E2,1.911E3,1.021E3,5.88E2,8.1E2,1.904E3,7.95E2,7.33E2,1.174E3,6.77E2,1.155E3,1.72E3,1.239E3,1.237E3,1.103E3,4.79E2,6.43E2,2.6E2,5.49E2,7.23E2,1.188E3,8.53E2,1.68E2,2.31E2,3.57E2,3.93E2,4.17E2,7.3E2,1.174E3,3.1E2,4.85E2,6.21E2,1.12E2,7.52E2,4.22E2,5.5E2,1.27E2,3.84E2,7.71E2,6.52E2,1.068E3,4.61E2,7.78E2,4.28E2,8.09E2,3.5E2,7.53E2,3.38E2,1.41E2,4.18E2,2.25E2,8.6E1,1.74E2,2.01E2,3.48E2,5.9E2,1.33E2,7.89E2,3.99E2,6.73E2,1.8E2,5.1E1,1.17E2,1.99E2,3.2E1,2.2E1,3.35E2,9.7E1,2.96E2,1.54E2,2.63E2,6.07E2,1.23E2,5.64E2,6.1E2,2.53E2,5.7E1,3.27E2,1.58E2,5.11E2,1.1E2,7.2E1,4E1,4.04E2,3.48E2,2.14E2,2.08E2,1.87E2,3.63E2,4E1,8.7E1,3.77E2,7E0,3.84E2,3.87E2,5.46E2,1.06E2,7.02E2,3.66E2,1.72E2,2.89E2,4.09E2,3.69E2,1.52E2,2.76E2,2.22E2,5.87E2,3.49E2,1E0,2.89E2,4.64E2,2.58E2,8E1,6.2E1,7.9E1,1.99E2,2.19E2,1.05E2,1.2E2,7.3E1,1.3E1,1.41E2,3.3E1,1.65E2,3.6E1,3.3E2,1.8E1,3.68E2,2.22E2,5.57E2,2.32E2,2.7E2,1.29E2,3.39E2,3.34E2,6.1E1,1.19E2,1E0,5E1,1E1,1.07E2,1.3E1,1.86E2,2.1E1,1E0,3.32E2,3E0,2.6E1,7.1E1,4.6E1,2.5E2,1.23E2,3.1E1,2.62E2,1E0,5.76E2,3.1E1,3.01E2,2.63E2,3.19E2,2.91E2,1.15E2,1.38E2,3.16E2,1.1E1,1E0,1.57E2,4.16E2,9.5E1,9.1E1,1.9E1,1.5E1,3.89E2,3.33E2,1.5E1,1.59E2,5.5E1,1.5E1,1.93E2,5E0,1.82E2,2.66E2,9.7E1,3.32E2,4.5E1,3E0,4E0,2.7E2,1.14E2,2.08E2,1.79E2,1.64E2,3.82E2,2.43E2,4.59E2,1.29E2,2.37E2,1.44E2,2.8E1,1.46E2,2.63E2,1.83E2,1.86E2,1.25E2,2.7E1,1.47E2,1.29E2,1.68E2,5.4E1,8.6E1,5.01E2,1.2E2,2.29E2,2.34E2,5.5E1,2.39E2,2.25E2],"tree_param":{"num_deleted":"0","num_feature":"7","num_nodes":"233","size_leaf_vector":"1"}},{"base_weights":[-1.2391764E-1,-9.032596E0,1.0431332E1,-1.8415318E1,1.0010153E-1,2.9835318E1,4.6944055E-1,-8.759754E0,-2.4745455E1,1.2040571E1,-7.770968E0,4.5040718E1,1.8659943E1,-1.0191225E1,1.1161254E1,-3.9276493E0,-1.56262865E1,-2.937977E1,-2.1786001E1,1.6937801E1,2.235236E0,-1.9158802E1,-1.4968308E0,3.5386307E1,5.0945774E1,6.7472935E0,3.0908323E1,-5.605552E0,-1.636898E1,1.0974946E0,1.7379442E1,-1.0245958E1,-3.2178617E-1,2.5962036E0,-2.388656E1,-1.9420656E1,-7.992763E1,-1.9135006E1,-2.6805944E1,7.61319E0,2.2552876E1,-1.4185484E1,1.8157625E1,-1.2640087E1,-2.6903963E1,5.587865E0,-8.306129E0,4.95945E1,-5.841963E0,4.339315E1,5.807946E1,-8.9573544E-1,1.137076E1,2.2842762E1,3.5688835E1,-1.2001828E1,-1.6219114E0,-2.2160418E1,-1.2813804E1,1.7769083E1,-9.166149E0,2.3671068E1,8.445134E0,2.4907877E0,-7.0902348E0,-1.2598216E1,1.78499E0,-3.290977E0,5.650278E0,-3.020366E1,-2.0026049E1,-2.4076027E1,-1.0478748E1,-8.738465E0,-1.0292855E1,-2.3540316E1,-1.1835911E1,-2.4397243E1,-2.9856403E1,2.2313227E1,-6.637349E0,2.6472645E1,1.6574286E1,-1.0543918E1,-2.0050613E1,9.649451E0,2.3600588E1,-2.2478315E1,-7.0486555E0,-3.1460285E1,-2.8139179E0,-1.2226547E-1,1.5702354E1,-1.2538977E1,-4.0691835E-1,4.25445E1,5.7138588E1,4.7601196E1,3.585309E1,6.2007133E1,5.144881E1,1.5391491E1,-7.8723626E0,-3.806442E0,2.6268585E1,3.8178097E1,-7.515376E0,4.0695885E1,2.8685427E1,-1.0325377E0,-7.509887E0,3.915509E0,-5.981426E0,-1.16317E1,-8.739004E0,-1.024268E1,-1.8280418E1,3.4641075E1,5.773157E0,3.9756775E1,1.1130246E1,1.803395E1,1.2803531E0,4.1955397E-1,-3.1477246E0,-4.4858317E0,-9.910192E-1,4.993307E-1,-1.1887141E0,7.0611155E-1,-7.067765E0,1.5133058E0,5.0631803E-1,-1.9639283E0,-8.518069E0,-2.7115624E0,-1.0604137E0,-2.47255E0,-3.2552726E0,-2.3694875E0,-6.069099E-1,-2.414651E0,-3.267404E0,-1.5755669E0,-5.2812374E-1,-2.6576328E0,-3.380849E0,-3.783353E0,-2.6089783E0,1.9057324E0,2.7782836E0,1.9316946E0,4.3457155E0,2.501195E0,1.3594588E0,-1.542947E0,-5.383129E-1,-1.9214728E0,-2.917514E0,3.2547836E0,-8.130189E0,3.4517581E0,1.72828E0,-1.2378962E0,-8.593928E0,-1.2029262E0,-8.797212E-2,-2.8409264E0,-8.573172E0,-9.45912E-1,5.24433E-1,2.731722E0,1.4305304E0,-3.3580225E0,2.3604463E-1,-2.1800115E0,1.6128252E0,5.3284626E0,4.4603944E0,6.781234E0,3.349332E0,5.5671053E0,-2.1756886E-1,4.4368715E0,3.2753458E0,3.544153E-1,7.27628E0,5.2413254E0,6.4988804E0,-2.1599688E-1,3.587849E0,-7.195509E-1,1.151048E-1,3.4943898E0,2.35547E0,3.7946813E0,5.099229E0,4.780535E0,4.5094922E-1,2.5900304E0,4.070403E0,7.5359565E-1,-7.219832E-1,1.2245178E0,-3.827107E-1,-1.4938068E0,4.4406526E-2,-6.7390627E-1,-1.6749254E0,-1.0617564E0,-2.1363502E0,-1.6321905E0,-2.5100608E0,3.305429E0,5.79947E0,-4.9392435E-1,1.8918387E0,3.8944466E0,6.3973765E0,-4.767489E-1,3.031724E0,3.3584533E0,8.837456E-1,-1.0150505E0,1.2724422E0],"categories":[],"categories_nodes":[],"categories_segments":[],"categories_sizes":[],"default_left":[0,0,0,0,0,0,0,0,0,0,0,0,0,0,0,0,0,0,0,0,0,0,0,0,0,0,0,0,0,0,0,0,0,0,0,0,0,0,0,0,0,0,0,0,0,0,0,0,0,0,0,0,0,0,0,0,0,0,0,0,0,0,0,0,0,0,0,0,0,0,0,0,0,0,0,0,0,0,0,0,0,0,0,0,0,0,0,0,0,0,0,0,0,0,0,0,0,0,0,0,0,0,0,0,0,0,0,0,0,0,0,0,0,0,0,0,0,0,0,0,0,0,0,0,0,0,0,0,0,0,0,0,0,0,0,0,0,0,0,0,0,0,0,0,0,0,0,0,0,0,0,0,0,0,0,0,0,0,0,0,0,0,0,0,0,0,0,0,0,0,0,0,0,0,0,0,0,0,0,0,0,0,0,0,0,0,0,0,0,0,0,0,0,0,0,0,0,0,0,0,0,0,0,0,0,0,0,0,0,0,0,0,0,0,0,0,0,0,0,0,0,0,0,0,0],"id":4,"left_children":[1,3,5,7,9,11,13,15,17,19,21,23,25,27,29,31,33,35,37,39,41,43,45,47,49,51,53,55,57,59,61,63,65,67,69,71,73,75,77,79,81,83,85,87,89,91,93,95,-1,97,99,101,103,105,107,109,111,113,115,117,-1,119,121,123,-1,125,127,129,131,133,135,137,139,-1,-1,141,143,145,147,149,-1,151,153,155,157,159,161,163,165,167,-1,169,171,173,175,177,179,181,183,185,187,189,-1,191,193,195,-1,197,199,201,-1,203,205,207,-1,209,211,213,215,217,219,221,223,-1,-1,-1,-1,-1,-1,-1,-1,-1,-1,-1,-1,-1,-1,-1,-1,-1,-1,-1,-1,-1,-1,-1,-1,-1,-1,-1,-1,-1,-1,-1,-1,-1,-1,-1,-1,-1,-1,-1,-1,-1,-1,-1,-1,-1,-1,-1,-1,-1,-1,-1,-1,-1,-1,-1,-1,-1,-1,-1,-1,-1,-1,-1,-1,-1,-1,-1,-1,-1,-1,-1,-1,-1,-1,-1,-1,-1,-1,-1,-1,-1,-1,-1,-1,-1,-1,-1,-1,-1,-1,-1,-1,-1,-1,-1,-1,-1,-1,-1,-1,-1,-1],"loss_changes":[1.6951388E6,8.377029E5,1.5949076E6,2.94509E5,4.657856E5,4.7478275E5,6.2165675E5,6.334522E4,3.929825E4,9.451156E4,2.1338897E5,6.5754E4,2.3543712E5,7.727519E4,1.7038181E5,2.5581969E4,1.18824484E5,5.6831E5,2.318825E4,6.857484E4,1.7203488E5,5.3228188E4,9.3008375E4,5.532764E5,3.697225E4,2.8986762E4,2.9876625E4,3.9959387E4,2.3661719E4,1.3871101E6,9.440381E4,2.6344594E5,1.8540889E4,4.459628E3,1.26374375E4,3.9169312E4,1.03625E3,3.731028E4,3.7756875E3,4.7159072E5,1.8754219E4,6.7086562E3,1.5239695E4,3.1637227E4,5.2585312E3,5.4580445E4,3.286265E4,1.8258375E4,0E0,9.71575E3,6.549875E3,3.3799494E5,1.1564081E5,4.0325312E5,1.6295625E4,3.4672412E5,2.3391387E4,2.4482878E5,9.974766E3,1.7426466E5,0E0,1.9866294E5,4.7862035E4,1.0852132E4,0E0,1.0796256E4,1.8434883E4,4.6045047E4,1.5016074E3,1.1564225E5,1.1921031E4,6.2639062E3,1.684698E4,0E0,0E0,8.638469E3,5.422504E3,1.8687188E3,4.5110312E3,3.3418906E3,0E0,5.2271656E4,7.6142734E3,3.1809668E3,1.7713398E3,1.9411695E5,1.0316047E4,1.2632735E5,7.6426484E3,5.117742E4,0E0,2.244625E4,8.748844E3,1.5211323E5,9.015318E4,1.0456875E3,4.1978125E3,2.6404062E3,1.2506719E3,6.6426875E3,1.5666875E3,6.659642E4,0E0,2.899212E3,5.2320625E3,6.579125E3,0E0,3.8070938E3,7.7528438E3,1.9406488E4,0E0,2.0348758E4,2.3635312E4,5.8615703E3,0E0,4.3244062E3,2.913586E3,3.2523062E4,5.3079E4,3.9534688E4,1.2637633E5,3.3444617E4,3.8703223E4,0E0,0E0,0E0,0E0,0E0,0E0,0E0,0E0,0E0,0E0,0E0,0E0,0E0,0E0,0E0,0E0,0E0,0E0,0E0,0E0,0E0,0E0,0E0,0E0,0E0,0E0,0E0,0E0,0E0,0E0,0E0,0E0,0E0,0E0,0E0,0E0,0E0,0E0,0E0,0E0,0E0,0E0,0E0,0E0,0E0,0E0,0E0,0E0,0E0,0E0,0E0,0E0,0E0,0E0,0E0,0E0,0E0,0E0,0E0,0E0,0E0,0E0,0E0,0E0,0E0,0E0,0E0,0E0,0E0,0E0,0E0,0E0,0E0,0E0,0E0,0E0,0E0,0E0,0E0,0E0,0E0,0E0,0E0,0E0,0E0,0E0,0E0,0E0,0E0,0E0,0E0,0E0,0E0,0E0,0E0,0E0,0E0,0E0,0E0,0E0,0E0,0E0],"parents":[2147483647,0,0,1,1,2,2,3,3,4,4,5,5,6,6,7,7,8,8,9,9,10,10,11,11,12,12,13,13,14,14,15,15,16,16,17,17,18,18,19,19,20,20,21,21,22,22,23,23,24,24,25,25,26,26,27,27,28,28,29,29,30,30,31,31,32,32,33,33,34,34,35,35,36,36,37,37,38,38,39,39,40,40,41,41,42,42,43,43,44,44,45,45,46,46,47,47,49,49,50,50,51,51,52,52,53,53,54,54,55,55,56,56,57,57,58,58,59,59,61,61,62,62,63,63,65,65,66,66,67,67,68,68,69,69,70,70,71,71,72,72,75,75,76,76,77,77,78,78,79,79,81,81,82,82,83,83,84,84,85,85,86,86,87,87,88,88,89,89,91,91,92,92,93,93,94,94,95,95,96,96,97,97,98,98,99,99,100,100,101,101,103,103,104,104,105,105,107,107,108,108,109,109,111,111,112,112,113,113,115,115,116,116,117,117,118,118,119,119,120,120,121,121,122,122],"right_children":[2,4,6,8,10,12,14,16,18,20,22,24,26,28,30,32,34,36,38,40,42,44,46,48,50,52,54,56,58,60,62,64,66,68,70,72,74,76,78,80,82,84,86,88,90,92,94,96,-1,98,100,102,104,106,108,110,112,114,116,118,-1,120,122,124,-1,126,128,130,132,134,136,138,140,-1,-1,142,144,146,148,150,-1,152,154,156,158,160,162,164,166,168,-1,170,172,174,176,178,180,182,184,186,188,190,-1,192,194,196,-1,198,200,202,-1,204,206,208,-1,210,212,214,216,218,220,222,224,-1,-1,-1,-1,-1,-1,-1,-1,-1,-1,-1,-1,-1,-1,-1,-1,-1,-1,-1,-1,-1,-1,-1,-1,-1,-1,-1,-1,-1,-1,-1,-1,-1,-1,-1,-1,-1,-1,-1,-1,-1,-1,-1,-1,-1,-1,-1,-1,-1,-1,-1,-1,-1,-1,-1,-1,-1,-1,-1,-1,-1,-1,-1,-1,-1,-1,-1,-1,-1,-1,-1,-1,-1,-1,-1,-1,-1,-1,-1,-1,-1,-1,-1,-1,-1,-1,-1,-1,-1,-1,-1,-1,-1,-1,-1,-1,-1,-1,-1,-1,-1,-1],"split_conditions":[1.0279038E1,3E1,2E0,2E0,2E0,2E0,3E1,1E0,6E0,4E0,2E0,6E0,3E1,1E0,6E0,6E0,2E0,5E0,1E0,6E0,5E0,1E0,4E0,5E0,3E1,6E0,6E0,6E0,6E0,5E0,1E0,5E0,3.0644681E0,6E0,6E0,3E0,3E0,3E0,1E0,5E0,1E0,1E0,6E0,6E0,6E0,3E0,3E0,3E1,-5.841963E0,1E0,1E0,5E0,3E0,5E0,1E0,5E0,2E0,5E0,1E0,2E0,-9.166149E0,2E0,2E0,9.32663E0,-7.0902348E0,7E0,5E0,5E0,7E0,5E0,5E0,1E0,2E0,-8.738465E0,-1.0292855E1,1E0,5E0,7.6607037E0,3E0,1E0,-6.637349E0,2E0,2E0,1.1E1,3.6E1,5E0,1E0,5E0,3E0,5E0,-2.8139179E0,6E0,5E0,5E0,5E0,1E0,2.0442959E1,2.096893E1,1.7075619E1,1E0,1.3973057E1,3E0,-7.8723626E0,1E0,1E0,3E0,-7.515376E0,2.096893E1,3E0,2E0,-7.509887E0,4E0,3E0,2.3E1,-8.739004E0,2.9E1,2E0,5E0,3E0,5E0,3E0,4E0,3E0,4.1955397E-1,-3.1477246E0,-4.4858317E0,-9.910192E-1,4.993307E-1,-1.1887141E0,7.0611155E-1,-7.067765E0,1.5133058E0,5.0631803E-1,-1.9639283E0,-8.518069E0,-2.7115624E0,-1.0604137E0,-2.47255E0,-3.2552726E0,-2.3694875E0,-6.069099E-1,-2.414651E0,-3.267404E0,-1.5755669E0,-5.2812374E-1,-2.6576328E0,-3.380849E0,-3.783353E0,-2.6089783E0,1.9057324E0,2.7782836E0,1.9316946E0,4.3457155E0,2.501195E0,1.3594588E0,-1.542947E0,-5.383129E-1,-1.9214728E0,-2.917514E0,3.2547836E0,-8.130189E0,3.4517581E0,1.72828E0,-1.2378962E0,-8.593928E0,-1.2029262E0,-8.797212E-2,-2.8409264E0,-8.573172E0,-9.45912E-1,5.24433E-1,2.731722E0,1.4305304E0,-3.3580225E0,2.3604463E-1,-2.1800115E0,1.6128252E0,5.3284626E0,4.4603944E0,6.781234E0,3.349332E0,5.5671053E0,-2.1756886E-1,4.4368715E0,3.2753458E0,3.544153E-1,7.27628E0,5.2413254E0,6.4988804E0,-2.1599688E-1,3.587849E0,-7.195509E-1,1.151048E-1,3.4943898E0,2.35547E0,3.7946813E0,5.099229E0,4.780535E0,4.5094922E-1,2.5900304E0,4.070403E0,7.5359565E-1,-7.219832E-1,1.2245178E0,-3.827107E-1,-1.4938068E0,4.4406526E-2,-6.7390627E-1,-1.6749254E0,-1.0617564E0,-2.1363502E0,-1.6321905E0,-2.5100608E0,3.305429E0,5.79947E0,-4.9392435E-1,1.8918387E0,3.8944466E0,6.3973765E0,-4.767489E-1,3.031724E0,3.3584533E0,8.837456E-1,-1.0150505E0,1.2724422E0],"split_indices":[6,0,1,2,2,2,0,3,5,1,1,5,0,3,5,5,1,5,4,5,1,3,1,5,0,5,5,5,5,5,3,5,6,5,5,2,2,2,3,5,3,3,5,5,5,2,2,0,0,3,3,5,2,5,3,5,2,5,4,2,0,2,2,6,0,5,1,5,5,5,1,3,1,0,0,3,1,6,2,1,0,1,1,5,0,5,3,5,2,5,0,5,5,1,1,3,6,6,6,2,6,2,0,3,3,2,0,6,2,2,0,1,2,0,0,0,2,1,2,1,2,1,2,0,0,0,0,0,0,0,0,0,0,0,0,0,0,0,0,0,0,0,0,0,0,0,0,0,0,0,0,0,0,0,0,0,0,0,0,0,0,0,0,0,0,0,0,0,0,0,0,0,0,0,0,0,0,0,0,0,0,0,0,0,0,0,0,0,0,0,0,0,0,0,0,0,0,0,0,0,0,0,0,0,0,0,0,0,0,0,0,0,0,0,0,0,0,0,0,0,0,0,0,0,0],"split_type":[0,0,0,0,0,0,0,0,0,0,0,0,0,0,0,0,0,0,0,0,0,0,0,0,0,0,0,0,0,0,0,0,0,0,0,0,0,0,0,0,0,0,0,0,0,0,0,0,0,0,0,0,0,0,0,0,0,0,0,0,0,0,0,0,0,0,0,0,0,0,0,0,0,0,0,0,0,0,0,0,0,0,0,0,0,0,0,0,0,0,0,0,0,0,0,0,0,0,0,0,0,0,0,0,0,0,0,0,0,0,0,0,0,0,0,0,0,0,0,0,0,0,0,0,0,0,0,0,0,0,0,0,0,0,0,0,0,0,0,0,0,0,0,0,0,0,0,0,0,0,0,0,0,0,0,0,0,0,0,0,0,0,0,0,0,0,0,0,0,0,0,0,0,0,0,0,0,0,0,0,0,0,0,0,0,0,0,0,0,0,0,0,0,0,0,0,0,0,0,0,0,0,0,0,0,0,0,0,0,0,0,0,0,0,0,0,0,0,0,0,0,0,0,0,0],"sum_hessian":[1.8025E4,9.775E3,8.25E3,4.821E3,4.954E3,2.798E3,5.452E3,1.91E3,2.911E3,1.968E3,2.986E3,1.184E3,1.614E3,2.73E3,2.722E3,1.122E3,7.88E2,1.131E3,1.78E3,1.312E3,6.56E2,1.06E3,1.926E3,4.52E2,7.32E2,8.19E2,7.95E2,1.568E3,1.162E3,1.04E3,1.682E3,4.07E2,7.15E2,2.46E2,5.42E2,9.46E2,1.85E2,1.168E3,6.12E2,4.94E2,8.18E2,3.23E2,3.33E2,5.77E2,4.83E2,9.44E2,9.82E2,3.88E2,6.4E1,3.59E2,3.73E2,3.09E2,5.1E2,2.98E2,4.97E2,6.01E2,9.67E2,4.4E2,7.22E2,8.61E2,1.79E2,9.86E2,6.96E2,3.26E2,8.1E1,1.04E2,6.11E2,8.4E1,1.62E2,2.03E2,3.39E2,6.21E2,3.25E2,1.24E2,6.1E1,7.27E2,4.41E2,3.47E2,2.65E2,4.03E2,9.1E1,4.92E2,3.26E2,2.01E2,1.22E2,1.31E2,2.02E2,2.08E2,3.69E2,1.77E2,3.06E2,6.04E2,3.4E2,6.39E2,3.43E2,2.04E2,1.84E2,2.27E2,1.32E2,2.29E2,1.44E2,2.49E2,6E1,2.53E2,2.57E2,2.54E2,4.4E1,2.87E2,2.1E2,4.98E2,1.03E2,4.26E2,5.41E2,3.68E2,7.2E1,4.93E2,2.29E2,3.57E2,5.04E2,4.31E2,5.55E2,2.97E2,3.99E2,3.15E2,1.1E1,1.3E1,9.1E1,5.06E2,1.05E2,7.3E1,1.1E1,2.3E1,1.39E2,1.56E2,4.7E1,2.6E2,7.9E1,3.63E2,2.58E2,1.12E2,2.13E2,4.53E2,2.74E2,3.57E2,8.4E1,2.64E2,8.3E1,1.93E2,7.2E1,8.6E1,3.17E2,2.59E2,2.33E2,1.61E2,1.65E2,1.37E2,6.4E1,7.4E1,4.8E1,1.07E2,2.4E1,1.18E2,8.4E1,1.7E2,3.8E1,2.42E2,1.27E2,1.53E2,2.4E1,2.21E2,3.83E2,1.02E2,2.38E2,3.01E2,3.38E2,1.5E2,1.93E2,1.1E2,9.4E1,1.76E2,8E0,2.26E2,1E0,9.9E1,3.3E1,2E0,2.27E2,6.3E1,8.1E1,1.18E2,1.31E2,1.69E2,8.4E1,1.56E2,1.01E2,1.31E2,1.23E2,2.84E2,3E0,1.06E2,1.04E2,2.03E2,2.95E2,2.22E2,2.04E2,2.6E2,2.81E2,1.19E2,2.49E2,4.35E2,5.8E1,1.02E2,1.27E2,2.55E2,1.02E2,2.58E2,2.46E2,3.07E2,1.24E2,2.75E2,2.8E2,1.45E2,1.52E2,1.96E2,2.03E2],"tree_param":{"num_deleted":"0","num_feature":"7","num_nodes":"225","size_leaf_vector":"1"}},{"base_weights":[1.634639E-1,-7.9104824E0,9.558582E0,1.5157723E0,-1.418246E1,2.5903906E1,8.626257E-1,-6.1715546E0,8.690621E0,-2.110506E1,-7.2883E0,3.846893E1,1.6707685E1,-9.943258E0,1.1265372E1,-7.828312E-1,-1.30679E1,1.2338892E0,1.3637983E1,-2.3854286E1,-1.6096405E1,-1.1158641E1,-3.3253166E-1,3.0175747E1,4.32379E1,6.267332E0,2.727917E1,-5.722728E0,-1.5914269E1,2.4879526E1,1.5146679E0,-5.2848234E0,7.8722034E0,2.3740451E0,-2.1152742E1,4.4143505E0,-5.326732E0,1.8447062E1,4.58546E0,-2.0843807E1,-2.8270493E1,-1.3087712E1,-2.2544329E1,-1.9679201E1,-6.8413534E0,-1.076968E1,5.200718E0,2.4659071E1,3.534384E1,3.680334E1,4.9830437E1,-8.418613E0,1.9765434E1,3.149792E1,2.1569407E1,-8.139996E0,2.0233841E-1,-1.2852671E1,-2.3090374E1,3.3527355E1,1.3598121E1,-7.6668324E0,1.0739964E1,-1.1481128E1,-5.72906E-1,1.9404734E1,-5.063402E0,-3.529968E0,9.304353E0,-1.6819813E1,-2.5040323E1,1.7421547E1,-5.8238645E0,8.494582E0,-7.6007376E0,2.1654076E1,1.4195388E1,-8.658544E0,1.9922136E1,-1.5770032E1,-2.3128275E1,-3.1427706E1,-2.14609E1,-3.5278986E0,-1.6340433E1,-3.001426E1,-1.7563696E1,-2.6486223E1,-1.5428907E1,-1.2521983E0,-1.2428492E1,-1.4325516E0,-2.2622934E1,1.2525943E1,-1.9278259E0,3.503138E1,-5.222062E0,6.264639E0,-4.818819E0,3.7093964E1,6.7738523E0,5.0485546E1,7.994029E-1,-2.4642127E0,-1.1212969E1,1.1915292E1,2.4109053E1,2.4342638E1,3.5566837E1,1.4372019E1,2.9143532E1,-2.4913313E0,-1.6550272E1,9.543149E0,-7.837713E0,-1.8807722E1,-9.401183E0,-1.7015406E1,-2.8240261E1,4.121472E1,2.5808083E1,9.292884E0,2.5974556E1,-3.3355024E0,-9.750877E0,9.13159E-1,1.684025E1,5.5262195E-3,-4.203953E0,2.0358689E-1,-6.477806E-1,3.6796706E0,-1.4837629E0,-2.2047941E-1,-2.005983E0,7.429199E-1,-1.9029843E0,8.3642685E-1,2.0852885E0,-1.5740895E0,-2.6289399E0,-4.247041E0,-1.7722918E0,2.1282544E0,4.926749E-1,-8.7039304E-1,2.8736823E0,1.7080778E0,3.507254E0,2.10741E0,1.195607E0,-1.2180871E0,-5.796605E-1,2.0082345E0,2.9958284E0,-1.4575264E0,-2.4461722E0,-7.5790424E0,-2.2128723E0,-4.169368E0,-3.3445811E0,-9.546041E-1,-3.8426583E0,-8.391479E-2,-1.0627141E0,-5.1122465E0,-1.180903E0,-4.473063E0,-2.837862E0,-2.7259138E0,-1.462952E0,-1.7690026E0,-7.799571E0,-1.5871497E0,-1.975571E0,6.527731E-1,-5.427505E-1,-2.8205893E0,1.2106184E-1,4.7312507E-1,-1.563868E0,-2.876659E0,-2.4344335E0,3.3847433E-1,2.0784223E0,-1.9157484E0,1.5177172E0,4.3067155E0,2.5183167E0,3.91022E0,4.59014E0,1.0880486E0,-2.0490599E-1,5.7157702E0,6.6674013E0,-7.176556E-1,6.778174E-1,5.7962626E-1,-4.6870252E-1,-7.4214964E0,-6.0655886E-1,2.89901E0,-6.401222E0,3.1095498E0,2.4648454E0,4.573638E0,-6.4656744E0,4.1814303E0,-1.3573831E0,6.6661376E-1,2.2169552E0,4.377795E0,2.8112931E0,3.5244575E-1,-9.531519E-1,-3.427415E0,-2.7550843E-1,1.2055206E0,-3.0129E0,-3.156145E0,1.1124746E0,-1.217006E0,-7.7388935E0,-8.663415E-1,-1.93642E0,-1.331331E0,-2.5564034E0,-4.058752E0,-2.1162822E0,6.1354795E0,4.3055487E0,9.503052E-1,4.7294154E0,2.4497266E0,-1.5048486E0,5.2351604E0,2.4680433E0,-2.4268411E-1,-1.1973684E0,-7.9050593E0,-6.548903E-1,2.000362E0,-7.6269836E0,2.3009715E0,3.76016E-1],"categories":[],"categories_nodes":[],"categories_segments":[],"categories_sizes":[],"default_left":[0,0,0,0,0,0,0,0,0,0,0,0,0,0,0,0,0,0,0,0,0,0,0,0,0,0,0,0,0,0,0,0,0,0,0,0,0,0,0,0,0,0,0,0,0,0,0,0,0,0,0,0,0,0,0,0,0,0,0,0,0,0,0,0,0,0,0,0,0,0,0,0,0,0,0,0,0,0,0,0,0,0,0,0,0,0,0,0,0,0,0,0,0,0,0,0,0,0,0,0,0,0,0,0,0,0,0,0,0,0,0,0,0,0,0,0,0,0,0,0,0,0,0,0,0,0,0,0,0,0,0,0,0,0,0,0,0,0,0,0,0,0,0,0,0,0,0,0,0,0,0,0,0,0,0,0,0,0,0,0,0,0,0,0,0,0,0,0,0,0,0,0,0,0,0,0,0,0,0,0,0,0,0,0,0,0,0,0,0,0,0,0,0,0,0,0,0,0,0,0,0,0,0,0,0,0,0,0,0,0,0,0,0,0,0,0,0,0,0,0,0,0,0,0,0,0,0,0,0,0,0,0,0,0,0,0,0,0,0,0,0,0,0,0,0],"id":5,"left_children":[1,3,5,7,9,11,13,15,17,19,21,23,25,27,29,31,33,35,37,39,41,43,45,47,49,51,53,55,57,59,61,63,65,67,69,71,73,75,77,79,81,83,85,87,89,91,93,95,97,99,101,103,105,107,109,111,113,115,117,119,121,123,125,127,129,131,133,135,137,139,141,143,-1,145,-1,147,149,151,153,155,157,159,161,163,165,167,169,171,173,175,177,179,181,183,185,187,-1,-1,-1,189,191,193,195,197,199,201,203,205,207,209,211,213,215,217,219,221,223,225,227,229,231,233,235,237,239,241,243,-1,-1,-1,-1,-1,-1,-1,-1,-1,-1,-1,-1,-1,-1,-1,-1,-1,-1,-1,-1,-1,-1,-1,-1,-1,-1,-1,-1,-1,-1,-1,-1,-1,-1,-1,-1,-1,-1,-1,-1,-1,-1,-1,-1,-1,-1,-1,-1,-1,-1,-1,-1,-1,-1,-1,-1,-1,-1,-1,-1,-1,-1,-1,-1,-1,-1,-1,-1,-1,-1,-1,-1,-1,-1,-1,-1,-1,-1,-1,-1,-1,-1,-1,-1,-1,-1,-1,-1,-1,-1,-1,-1,-1,-1,-1,-1,-1,-1,-1,-1,-1,-1,-1,-1,-1,-1,-1,-1,-1,-1,-1,-1,-1,-1,-1,-1,-1,-1],"loss_changes":[1.3630505E6,5.713693E5,1.1804358E6,2.1306384E5,2.767975E5,3.326055E5,6.0960375E5,6.929783E4,7.369167E4,3.948E4,7.831003E4,4.6867125E4,1.8381588E5,6.694316E4,3.667439E5,4.0876812E4,1.02173984E5,1.6674424E4,5.2200125E4,2.423225E4,1.9667312E4,6.861786E4,6.0175164E4,1.1901219E4,3.0872E4,1.6668158E5,1.92655E4,2.2344703E4,2.3892562E4,1.12030375E5,1.3653736E5,2.013899E4,5.365397E4,1.1571332E4,8.624391E3,3.8188862E5,2.1689434E5,1.03825625E4,8.507624E4,1.2547531E4,1.5536E4,2.1833523E4,1.1601672E4,1.7760516E4,3.8768844E4,3.9921395E4,3.5584734E4,1.6021475E5,3.2692788E5,3.18725E3,1.21013125E4,6.6777734E3,1.4647672E4,1.2934344E4,1.893361E4,5.2596336E4,3.4095363E4,1.57318125E4,9.781094E3,3.7626625E4,2.650693E4,7.261039E3,4.818146E4,8.463689E4,4.5652344E3,7.497708E4,6.5242866E3,1.954522E4,2.2427031E3,4.5794844E3,3.1011703E4,4.8705156E3,0E0,5.527581E4,0E0,2.5887688E4,5.029758E3,1.4428027E3,2.567289E3,5.6831484E3,1.3117425E5,5.0405E3,3.6797047E4,2.8238386E3,8.925555E4,5.178367E3,5.4965703E3,1.0876217E5,8.4539844E2,1.4579387E4,9.874821E4,1.3448847E4,5.1070312E1,1.7172668E4,7.54601E4,4.2611094E3,0E0,0E0,0E0,1.870625E3,1.26275085E2,6.871875E2,2.4584055E2,1.5320201E3,8.608124E4,1.3869727E5,1.5818281E3,2.1119088E5,5.4643125E3,7.325824E3,6.3604062E3,2.0903877E4,8.131752E4,6.3206973E3,8.207803E4,1.1200108E5,6.847035E3,3.9704844E3,1.1101641E4,1.3836875E4,8.545005E4,9.794678E4,1.0741797E4,2.273516E3,1.3036295E5,3.3517644E5,1.9698547E4,0E0,0E0,0E0,0E0,0E0,0E0,0E0,0E0,0E0,0E0,0E0,0E0,0E0,0E0,0E0,0E0,0E0,0E0,0E0,0E0,0E0,0E0,0E0,0E0,0E0,0E0,0E0,0E0,0E0,0E0,0E0,0E0,0E0,0E0,0E0,0E0,0E0,0E0,0E0,0E0,0E0,0E0,0E0,0E0,0E0,0E0,0E0,0E0,0E0,0E0,0E0,0E0,0E0,0E0,0E0,0E0,0E0,0E0,0E0,0E0,0E0,0E0,0E0,0E0,0E0,0E0,0E0,0E0,0E0,0E0,0E0,0E0,0E0,0E0,0E0,0E0,0E0,0E0,0E0,0E0,0E0,0E0,0E0,0E0,0E0,0E0,0E0,0E0,0E0,0E0,0E0,0E0,0E0,0E0,0E0,0E0,0E0,0E0,0E0,0E0,0E0,0E0,0E0,0E0,0E0,0E0,0E0,0E0,0E0,0E0,0E0,0E0,0E0,0E0,0E0,0E0,0E0,0E0],"parents":[2147483647,0,0,1,1,2,2,3,3,4,4,5,5,6,6,7,7,8,8,9,9,10,10,11,11,12,12,13,13,14,14,15,15,16,16,17,17,18,18,19,19,20,20,21,21,22,22,23,23,24,24,25,25,26,26,27,27,28,28,29,29,30,30,31,31,32,32,33,33,34,34,35,35,36,36,37,37,38,38,39,39,40,40,41,41,42,42,43,43,44,44,45,45,46,46,47,47,48,48,49,49,50,50,51,51,52,52,53,53,54,54,55,55,56,56,57,57,58,58,59,59,60,60,61,61,62,62,63,63,64,64,65,65,66,66,67,67,68,68,69,69,70,70,71,71,73,73,75,75,76,76,77,77,78,78,79,79,80,80,81,81,82,82,83,83,84,84,85,85,86,86,87,87,88,88,89,89,90,90,91,91,92,92,93,93,94,94,95,95,99,99,100,100,101,101,102,102,103,103,104,104,105,105,106,106,107,107,108,108,109,109,110,110,111,111,112,112,113,113,114,114,115,115,116,116,117,117,118,118,119,119,120,120,121,121,122,122,123,123,124,124,125,125,126,126],"right_children":[2,4,6,8,10,12,14,16,18,20,22,24,26,28,30,32,34,36,38,40,42,44,46,48,50,52,54,56,58,60,62,64,66,68,70,72,74,76,78,80,82,84,86,88,90,92,94,96,98,100,102,104,106,108,110,112,114,116,118,120,122,124,126,128,130,132,134,136,138,140,142,144,-1,146,-1,148,150,152,154,156,158,160,162,164,166,168,170,172,174,176,178,180,182,184,186,188,-1,-1,-1,190,192,194,196,198,200,202,204,206,208,210,212,214,216,218,220,222,224,226,228,230,232,234,236,238,240,242,244,-1,-1,-1,-1,-1,-1,-1,-1,-1,-1,-1,-1,-1,-1,-1,-1,-1,-1,-1,-1,-1,-1,-1,-1,-1,-1,-1,-1,-1,-1,-1,-1,-1,-1,-1,-1,-1,-1,-1,-1,-1,-1,-1,-1,-1,-1,-1,-1,-1,-1,-1,-1,-1,-1,-1,-1,-1,-1,-1,-1,-1,-1,-1,-1,-1,-1,-1,-1,-1,-1,-1,-1,-1,-1,-1,-1,-1,-1,-1,-1,-1,-1,-1,-1,-1,-1,-1,-1,-1,-1,-1,-1,-1,-1,-1,-1,-1,-1,-1,-1,-1,-1,-1,-1,-1,-1,-1,-1,-1,-1,-1,-1,-1,-1,-1,-1,-1,-1],"split_conditions":[1.0279038E1,2E0,2E0,3E1,3E1,2E0,3E1,1E0,6E0,3E0,3E0,6E0,3E1,1E0,2E0,4E0,2E0,4E0,4E0,1E0,1E0,2E0,2E0,3E1,3E1,3E0,1E0,3E0,1E0,1E0,3E0,7E0,5E0,9E0,4E0,5E0,5E0,1E0,5E0,5E0,4E0,4E0,2E0,6E0,4E0,1E0,4E0,5E0,5E0,2.096893E1,2.096893E1,5E0,6E0,6E0,3E0,2E0,4E0,6E0,2E0,4E0,5E0,5E0,6E0,5E0,1E0,3E0,2E0,5E0,7.762568E0,1E0,5E0,9.315037E0,-5.8238645E0,5E0,-7.6007376E0,2E0,2E0,7.646425E0,1.3E1,1E0,6E0,6E0,5E0,4E0,6E0,6E0,7E0,5E0,3.0734017E0,5E0,5E0,1E0,7E0,6E0,5E0,3E0,-5.222062E0,6.264639E0,-4.818819E0,1E1,1E0,2E0,3.3E1,1.1720131E1,6E0,5E0,1.1E1,5E0,2.096893E1,6E0,1.32155E1,4E0,4E0,2.0848103E1,5E0,5E0,2.8E1,4E0,3E0,4E0,5E0,4E0,4E0,1.9760118E1,6E0,5E0,3E0,5.5262195E-3,-4.203953E0,2.0358689E-1,-6.477806E-1,3.6796706E0,-1.4837629E0,-2.2047941E-1,-2.005983E0,7.429199E-1,-1.9029843E0,8.3642685E-1,2.0852885E0,-1.5740895E0,-2.6289399E0,-4.247041E0,-1.7722918E0,2.1282544E0,4.926749E-1,-8.7039304E-1,2.8736823E0,1.7080778E0,3.507254E0,2.10741E0,1.195607E0,-1.2180871E0,-5.796605E-1,2.0082345E0,2.9958284E0,-1.4575264E0,-2.4461722E0,-7.5790424E0,-2.2128723E0,-4.169368E0,-3.3445811E0,-9.546041E-1,-3.8426583E0,-8.391479E-2,-1.0627141E0,-5.1122465E0,-1.180903E0,-4.473063E0,-2.837862E0,-2.7259138E0,-1.462952E0,-1.7690026E0,-7.799571E0,-1.5871497E0,-1.975571E0,6.527731E-1,-5.427505E-1,-2.8205893E0,1.2106184E-1,4.7312507E-1,-1.563868E0,-2.876659E0,-2.4344335E0,3.3847433E-1,2.0784223E0,-1.9157484E0,1.5177172E0,4.3067155E0,2.5183167E0,3.91022E0,4.59014E0,1.0880486E0,-2.0490599E-1,5.7157702E0,6.6674013E0,-7.176556E-1,6.778174E-1,5.7962626E-1,-4.6870252E-1,-7.4214964E0,-6.0655886E-1,2.89901E0,-6.401222E0,3.1095498E0,2.4648454E0,4.573638E0,-6.4656744E0,4.1814303E0,-1.3573831E0,6.6661376E-1,2.2169552E0,4.377795E0,2.8112931E0,3.5244575E-1,-9.531519E-1,-3.427415E0,-2.7550843E-1,1.2055206E0,-3.0129E0,-3.156145E0,1.1124746E0,-1.217006E0,-7.7388935E0,-8.663415E-1,-1.93642E0,-1.331331E0,-2.5564034E0,-4.058752E0,-2.1162822E0,6.1354795E0,4.3055487E0,9.503052E-1,4.7294154E0,2.4497266E0,-1.5048486E0,5.2351604E0,2.4680433E0,-2.4268411E-1,-1.1973684E0,-7.9050593E0,-6.548903E-1,2.000362E0,-7.6269836E0,2.3009715E0,3.76016E-1],"split_indices":[6,2,1,0,0,2,0,3,5,2,2,5,0,3,2,1,1,1,1,3,4,1,1,0,0,2,3,2,4,3,2,5,1,5,1,5,5,3,1,5,1,5,1,5,1,3,1,5,5,6,6,5,5,5,2,2,1,5,2,1,1,5,5,5,4,4,4,5,6,4,1,6,0,1,0,1,1,6,5,4,5,5,1,1,5,5,5,5,6,5,1,4,5,5,1,4,0,0,0,5,4,4,0,6,5,5,5,5,6,5,6,1,1,6,1,5,0,1,2,5,1,1,5,6,5,5,4,0,0,0,0,0,0,0,0,0,0,0,0,0,0,0,0,0,0,0,0,0,0,0,0,0,0,0,0,0,0,0,0,0,0,0,0,0,0,0,0,0,0,0,0,0,0,0,0,0,0,0,0,0,0,0,0,0,0,0,0,0,0,0,0,0,0,0,0,0,0,0,0,0,0,0,0,0,0,0,0,0,0,0,0,0,0,0,0,0,0,0,0,0,0,0,0,0,0,0,0,0,0,0,0,0,0,0,0,0,0,0,0,0,0,0,0,0,0],"split_type":[0,0,0,0,0,0,0,0,0,0,0,0,0,0,0,0,0,0,0,0,0,0,0,0,0,0,0,0,0,0,0,0,0,0,0,0,0,0,0,0,0,0,0,0,0,0,0,0,0,0,0,0,0,0,0,0,0,0,0,0,0,0,0,0,0,0,0,0,0,0,0,0,0,0,0,0,0,0,0,0,0,0,0,0,0,0,0,0,0,0,0,0,0,0,0,0,0,0,0,0,0,0,0,0,0,0,0,0,0,0,0,0,0,0,0,0,0,0,0,0,0,0,0,0,0,0,0,0,0,0,0,0,0,0,0,0,0,0,0,0,0,0,0,0,0,0,0,0,0,0,0,0,0,0,0,0,0,0,0,0,0,0,0,0,0,0,0,0,0,0,0,0,0,0,0,0,0,0,0,0,0,0,0,0,0,0,0,0,0,0,0,0,0,0,0,0,0,0,0,0,0,0,0,0,0,0,0,0,0,0,0,0,0,0,0,0,0,0,0,0,0,0,0,0,0,0,0,0,0,0,0,0,0,0,0,0,0,0,0,0,0,0,0,0,0],"sum_hessian":[1.7967E4,9.663E3,8.304E3,3.861E3,5.802E3,2.883E3,5.421E3,1.864E3,1.997E3,2.894E3,2.908E3,1.217E3,1.666E3,2.659E3,2.762E3,1.047E3,8.17E2,7.97E2,1.2E3,1.866E3,1.028E3,1.868E3,1.04E3,4.47E2,7.7E2,8.39E2,8.27E2,1.559E3,1.1E3,1.152E3,1.61E3,6.89E2,3.58E2,2.81E2,5.36E2,5.37E2,2.6E2,7.83E2,4.17E2,1.113E3,7.53E2,7.03E2,3.25E2,6.27E2,1.241E3,3.6E2,6.8E2,2.19E2,2.28E2,3.93E2,3.77E2,4.02E2,4.37E2,4.73E2,3.54E2,1.107E3,4.52E2,7.73E2,3.27E2,6.51E2,5.01E2,8.07E2,8.03E2,2.97E2,3.92E2,1.89E2,1.69E2,1.52E2,1.29E2,2.56E2,2.8E2,4.34E2,1.03E2,2.12E2,4.8E1,4.44E2,3.39E2,2.24E2,1.93E2,3.48E2,7.65E2,5.12E2,2.41E2,1.79E2,5.24E2,1.28E2,1.97E2,2.39E2,3.88E2,6.21E2,6.2E2,2.02E2,1.58E2,3.35E2,3.45E2,1.91E2,2.8E1,1.84E2,4.4E1,3.89E2,4E0,3.72E2,5E0,1.29E2,2.73E2,1.57E2,2.8E2,1.74E2,2.99E2,1.83E2,1.71E2,6.63E2,4.44E2,2.09E2,2.43E2,2.82E2,4.91E2,1.52E2,1.75E2,3.24E2,3.27E2,3.73E2,1.28E2,2.63E2,5.44E2,3.08E2,4.95E2,2.03E2,9.4E1,2.68E2,1.24E2,1.37E2,5.2E1,1.35E2,3.4E1,8.6E1,6.6E1,1.05E2,2.4E1,1.65E2,9.1E1,1.28E2,1.52E2,4.07E2,2.7E1,1.07E2,1.05E2,2.45E2,1.99E2,1.68E2,1.71E2,1.49E2,7.5E1,1.35E2,5.8E1,2.17E2,1.31E2,6.7E1,6.98E2,1.9E2,3.22E2,1.13E2,1.28E2,1.2E2,5.9E1,9.5E1,4.29E2,4.9E1,7.9E1,8.9E1,1.08E2,1.88E2,5.1E1,1.84E2,2.04E2,2.06E2,4.15E2,3.3E2,2.9E2,1.39E2,6.3E1,6.5E1,9.3E1,1.2E2,2.15E2,1.75E2,1.7E2,1.65E2,2.6E1,1.62E2,2.27E2,3E0,1E0,3.16E2,5.6E1,2E0,3E0,2.2E1,1.07E2,2.7E1,2.46E2,1.32E2,2.5E1,1.44E2,1.36E2,1.47E2,2.7E1,2.97E2,2E0,6.5E1,1.18E2,6.1E1,1.1E2,3.37E2,3.26E2,2.32E2,2.12E2,2.05E2,4E0,1.15E2,1.28E2,2.41E2,4.1E1,3.88E2,1.03E2,7.3E1,7.9E1,1.04E2,7.1E1,8.4E1,2.4E2,1.5E2,1.77E2,2.44E2,1.29E2,2.4E1,1.04E2,2.24E2,3.9E1,3.5E1,5.09E2,2.48E2,6E1,4.07E2,8.8E1],"tree_param":{"num_deleted":"0","num_feature":"7","num_nodes":"245","size_leaf_vector":"1"}},{"base_weights":[1.4115344E-1,-7.162105E0,8.604174E0,1.2138287E0,-1.2659111E1,2.2824251E1,1.3004009E0,-4.9790864E0,4.790998E0,-1.8719656E1,-9.683994E0,3.4853004E1,1.3926114E1,-6.3984632E0,6.0765004E0,5.5102043E0,-5.2535755E1,-2.0162332E0,1.1460277E1,-1.3401339E1,-2.5729744E1,-1.6688395E1,-2.5511174E0,2.7995274E1,3.9229103E1,4.3994336E0,2.4334454E1,4.254333E0,-6.264138E1,-3.5020764E0,1.5053277E1,-1.223436E0,1.2048589E1,-6.455684E0,-4.805303E1,2.758498E0,-8.219506E0,1.55071E1,5.9168186E0,-1.7831333E1,-8.536649E0,-3.0070625E1,-2.2651503E1,-1.9780455E1,-1.0798897E1,-6.4628277E0,4.6596346E0,3.860544E1,-4.6269445E0,3.2653175E1,4.665921E1,-6.350411E0,1.4522798E1,1.6235643E1,2.8479063E1,-5.9278827E0,1.4282867E1,-6.7969384E0,-6.649166E1,6.175554E-1,-8.796321E0,2.626973E1,6.4527636E0,1.9825954E0,-1.1730922E1,1.0149505E1,2.163708E1,-5.173969E0,-6.6444235E0,-1.6579098E0,1.1273474E1,5.8726544E0,-1.5201472E1,1.9578466E1,8.126798E0,1.1688336E1,-5.20314E0,-2.0912584E1,-1.2356723E1,-1.5468667E1,-5.0958357E0,-2.5844828E1,-3.1454725E1,-2.728039E1,-1.957771E1,-1.7108854E1,-2.5059017E1,-3.9486358E0,-1.3718168E1,-1.1507741E0,-1.2042952E1,1.0608331E1,-1.2678365E0,4.337063E1,3.2258057E1,2.9443192E1,3.5390705E1,4.7344013E1,7.6205444E-1,-1.1296661E1,-3.7255294E0,2.1811848E1,1.1286066E1,3.0382572E1,-6.202713E0,2.3256517E1,3.4939003E1,-2.7319448E0,-1.348929E1,2.8094698E1,4.3363733E0,-8.486355E0,-6.928958E0,7.4083543E0,-4.587305E0,-1.129167E1,-6.1399174E0,2.1753168E1,4.0419563E1,-3.5888925E0,1.6603764E1,1.4250953E-1,9.661523E0,-2.0312836E0,-3.0210194E-1,1.6067861E0,-7.3414975E-1,3.473461E0,7.031838E-1,1.9458939E0,-2.364896E-1,3.9099298E0,-8.835468E-1,1.6859324E0,5.562975E-1,-1.3136013E0,-2.4536178E0,1.406514E0,3.212934E0,-6.110857E-1,2.7193074E0,1.7155284E0,9.645003E-1,-1.5973423E0,6.447801E-1,-1.2769319E0,-2.4875495E0,-1.0588194E0,-2.3087924E0,-2.75251E0,-7.4661666E-1,-2.4184291E-1,-9.178991E-1,-3.0739312E0,1.3819219E0,-3.495157E0,-4.3046923E0,-3.0401144E0,-4.9406614E0,-2.1689746E0,-2.4542854E0,-1.6162783E0,-2.5799034E0,-3.0100968E0,-1.812938E0,2.2592132E-1,-1.1748447E0,-2.0673516E0,-1.0032866E0,-2.0282947E-1,4.5045537E-1,-2.9046018E0,9.088339E-2,4.5088506E-1,1.3983835E0,-1.7540293E0,1.3507986E0,4.3900166E0,5.696859E0,3.161508E0,4.3811655E0,3.6139495E0,2.2509155E0,4.3835053E0,3.1115694E0,5.971368E0,4.7132053E0,-5.966779E-1,5.805631E-1,-1.0913521E0,-1.877427E0,-5.66213E-1,-2.3559477E-2,3.3157184E0,1.5083847E0,1.2053512E0,3.0719473E0,3.5775778E0,-2.7263162E0,3.4012582E0,1.6957657E0,4.4437256E0,3.5652323E0,3.6759976E-2,-8.354419E-1,-1.0298865E0,-1.9180362E0,4.1641164E0,2.1235564E0,-4.3496856E-1,1.5950781E0,1.618851E0,4.304672E-1,-1.271392E0,3.0497408E-1,-3.008082E-1,-2.1457722E0,9.234755E-3,-2.595484E0,3.519842E0,5.225797E-1,5.3255386E0,3.6356366E0,-1.7345765E-1,-7.718945E-1,2.6941211E0,7.3907393E-1],"categories":[],"categories_nodes":[],"categories_segments":[],"categories_sizes":[],"default_left":[0,0,0,0,0,0,0,0,0,0,0,0,0,0,0,0,0,0,0,0,0,0,0,0,0,0,0,0,0,0,0,0,0,0,0,0,0,0,0,0,0,0,0,0,0,0,0,0,0,0,0,0,0,0,0,0,0,0,0,0,0,0,0,0,0,0,0,0,0,0,0,0,0,0,0,0,0,0,0,0,0,0,0,0,0,0,0,0,0,0,0,0,0,0,0,0,0,0,0,0,0,0,0,0,0,0,0,0,0,0,0,0,0,0,0,0,0,0,0,0,0,0,0,0,0,0,0,0,0,0,0,0,0,0,0,0,0,0,0,0,0,0,0,0,0,0,0,0,0,0,0,0,0,0,0,0,0,0,0,0,0,0,0,0,0,0,0,0,0,0,0,0,0,0,0,0,0,0,0,0,0,0,0,0,0,0,0,0,0,0,0,0,0,0,0,0,0,0,0,0,0,0,0,0,0,0,0,0,0,0,0,0,0,0,0,0,0,0,0,0,0,0,0,0,0,0,0],"id":6,"left_children":[1,3,5,7,9,11,13,15,17,19,21,23,25,27,29,31,33,35,37,39,41,43,45,47,49,51,53,55,57,59,61,63,65,-1,67,69,71,73,75,77,79,81,83,85,87,89,91,93,-1,95,97,99,101,103,105,107,109,-1,111,113,115,117,119,121,123,125,127,-1,-1,129,131,133,135,137,139,141,143,145,147,149,151,153,155,157,159,161,163,165,167,169,171,173,175,177,179,181,183,185,187,189,191,193,195,197,-1,199,201,203,205,207,209,-1,-1,211,213,215,217,219,221,223,225,-1,-1,-1,-1,-1,-1,-1,-1,-1,-1,-1,-1,-1,-1,-1,-1,-1,-1,-1,-1,-1,-1,-1,-1,-1,-1,-1,-1,-1,-1,-1,-1,-1,-1,-1,-1,-1,-1,-1,-1,-1,-1,-1,-1,-1,-1,-1,-1,-1,-1,-1,-1,-1,-1,-1,-1,-1,-1,-1,-1,-1,-1,-1,-1,-1,-1,-1,-1,-1,-1,-1,-1,-1,-1,-1,-1,-1,-1,-1,-1,-1,-1,-1,-1,-1,-1,-1,-1,-1,-1,-1,-1,-1,-1,-1,-1,-1,-1,-1,-1,-1,-1,-1,-1,-1,-1],"loss_changes":[1.1057384E6,4.4216203E5,8.606599E5,8.433858E4,1.043615E5,3.0049288E5,2.0139438E5,6.956665E5,1.0957166E5,7.0789E4,1.9435769E5,3.476375E4,1.6032888E5,1.2566721E6,2.906812E5,5.0337758E4,6.396875E2,3.5417332E4,2.7254562E4,2.3273219E4,1.0302625E4,3.5534E4,5.4440203E4,3.3864834E5,3.3997625E4,9.215783E4,2.5484406E4,1.802115E5,1.58075E3,3.568715E4,1.6816584E5,1.9022912E4,1.03418125E4,0E0,9.4390625E2,2.5440078E4,5.125259E4,2.0994625E4,3.31772E4,9.323E3,1.2324105E4,1.164E3,6.3666094E3,1.7706719E4,1.3504328E4,3.7068176E4,2.395548E4,1.0881E4,0E0,2.3762812E3,1.0618875E4,5.2940625E3,1.0040258E4,2.6127484E5,1.6393469E4,2.1132379E4,1.2200834E5,0E0,3.166125E3,3.2586875E4,4.676785E3,4.74995E4,1.0087116E5,2.6500395E4,6.852371E3,2.9315469E4,1.1974406E4,0E0,0E0,3.0972832E3,9.750354E4,1.5597759E3,7.7725703E3,2.6910094E4,5.1478477E4,3.405875E3,1.6275605E4,1.4143906E3,4.8665723E3,1.2584945E4,2.9223057E3,2.2051406E3,8.621719E2,2.2588281E3,2.6789062E1,1.3656766E4,2.8634688E3,7.402037E3,9.637891E3,1.9141017E3,1.0101293E5,3.1618125E3,6.0755938E4,5.3700625E3,3.8598594E3,2.3992188E3,3.0197188E3,6.9779375E3,1.7485313E2,1.1668281E3,1.082334E3,7.489E3,4.0010078E3,4.894E3,0E0,1.4341578E4,1.9839375E3,8.36166E3,3.4608906E3,2.7489688E4,3.9223504E4,0E0,0E0,9.594004E3,2.3863562E4,2.2840215E4,3.507314E4,8.4248125E4,7.4856875E3,3.1700073E3,3.2856312E4,0E0,0E0,0E0,0E0,0E0,0E0,0E0,0E0,0E0,0E0,0E0,0E0,0E0,0E0,0E0,0E0,0E0,0E0,0E0,0E0,0E0,0E0,0E0,0E0,0E0,0E0,0E0,0E0,0E0,0E0,0E0,0E0,0E0,0E0,0E0,0E0,0E0,0E0,0E0,0E0,0E0,0E0,0E0,0E0,0E0,0E0,0E0,0E0,0E0,0E0,0E0,0E0,0E0,0E0,0E0,0E0,0E0,0E0,0E0,0E0,0E0,0E0,0E0,0E0,0E0,0E0,0E0,0E0,0E0,0E0,0E0,0E0,0E0,0E0,0E0,0E0,0E0,0E0,0E0,0E0,0E0,0E0,0E0,0E0,0E0,0E0,0E0,0E0,0E0,0E0,0E0,0E0,0E0,0E0,0E0,0E0,0E0,0E0,0E0,0E0,0E0,0E0,0E0,0E0,0E0,0E0],"parents":[2147483647,0,0,1,1,2,2,3,3,4,4,5,5,6,6,7,7,8,8,9,9,10,10,11,11,12,12,13,13,14,14,15,15,16,16,17,17,18,18,19,19,20,20,21,21,22,22,23,23,24,24,25,25,26,26,27,27,28,28,29,29,30,30,31,31,32,32,34,34,35,35,36,36,37,37,38,38,39,39,40,40,41,41,42,42,43,43,44,44,45,45,46,46,47,47,49,49,50,50,51,51,52,52,53,53,54,54,55,55,56,56,58,58,59,59,60,60,61,61,62,62,63,63,64,64,65,65,66,66,69,69,70,70,71,71,72,72,73,73,74,74,75,75,76,76,77,77,78,78,79,79,80,80,81,81,82,82,83,83,84,84,85,85,86,86,87,87,88,88,89,89,90,90,91,91,92,92,93,93,94,94,95,95,96,96,97,97,98,98,99,99,100,100,101,101,102,102,103,103,105,105,106,106,107,107,108,108,109,109,110,110,113,113,114,114,115,115,116,116,117,117,118,118,119,119,120,120],"right_children":[2,4,6,8,10,12,14,16,18,20,22,24,26,28,30,32,34,36,38,40,42,44,46,48,50,52,54,56,58,60,62,64,66,-1,68,70,72,74,76,78,80,82,84,86,88,90,92,94,-1,96,98,100,102,104,106,108,110,-1,112,114,116,118,120,122,124,126,128,-1,-1,130,132,134,136,138,140,142,144,146,148,150,152,154,156,158,160,162,164,166,168,170,172,174,176,178,180,182,184,186,188,190,192,194,196,198,-1,200,202,204,206,208,210,-1,-1,212,214,216,218,220,222,224,226,-1,-1,-1,-1,-1,-1,-1,-1,-1,-1,-1,-1,-1,-1,-1,-1,-1,-1,-1,-1,-1,-1,-1,-1,-1,-1,-1,-1,-1,-1,-1,-1,-1,-1,-1,-1,-1,-1,-1,-1,-1,-1,-1,-1,-1,-1,-1,-1,-1,-1,-1,-1,-1,-1,-1,-1,-1,-1,-1,-1,-1,-1,-1,-1,-1,-1,-1,-1,-1,-1,-1,-1,-1,-1,-1,-1,-1,-1,-1,-1,-1,-1,-1,-1,-1,-1,-1,-1,-1,-1,-1,-1,-1,-1,-1,-1,-1,-1,-1,-1,-1,-1,-1,-1,-1,-1],"split_conditions":[1.0279038E1,2E0,2E0,6E0,2E0,2E0,6E0,5E0,3E1,1E0,3E1,6E0,3E1,5E0,3E1,3E1,3.1E1,1E0,1E0,3E1,2.9E1,3E0,3E0,5E0,3E1,3E0,6E0,3E1,3E1,1E0,2E0,3E0,5E0,-6.455684E0,4E0,4E0,2E0,4E0,4E0,3E0,6E0,4E0,6E0,1E0,5E0,4E0,4E0,1E0,-4.6269445E0,1.1E1,2.096893E1,6E0,5E0,5E0,3E0,1E0,2E0,-6.7969384E0,2E0,2E0,4E0,5E0,3E0,2E0,6.2321987E0,4E0,1E0,-5.173969E0,-6.6444235E0,1.5092329E0,5E0,2.9795318E0,1E0,2E0,5E0,2E0,5E0,1.5092329E0,1E0,4.590778E0,1E0,9.32663E0,7.8626795E0,9.312852E0,1E0,1E0,9.179551E0,4E0,1E0,8.942967E0,5E0,3.2E1,5E0,3E1,2.9E1,1E0,1.7098413E1,1E0,3.4E1,1.729789E1,1.713754E1,1E0,2.0286055E1,2.096893E1,-6.202713E0,1E0,1E0,1E0,2E0,1E0,3E0,-8.486355E0,-6.928958E0,1.2464385E1,3E0,2E0,3E0,4E0,1E0,1E0,1E0,1.4250953E-1,9.661523E0,-2.0312836E0,-3.0210194E-1,1.6067861E0,-7.3414975E-1,3.473461E0,7.031838E-1,1.9458939E0,-2.364896E-1,3.9099298E0,-8.835468E-1,1.6859324E0,5.562975E-1,-1.3136013E0,-2.4536178E0,1.406514E0,3.212934E0,-6.110857E-1,2.7193074E0,1.7155284E0,9.645003E-1,-1.5973423E0,6.447801E-1,-1.2769319E0,-2.4875495E0,-1.0588194E0,-2.3087924E0,-2.75251E0,-7.4661666E-1,-2.4184291E-1,-9.178991E-1,-3.0739312E0,1.3819219E0,-3.495157E0,-4.3046923E0,-3.0401144E0,-4.9406614E0,-2.1689746E0,-2.4542854E0,-1.6162783E0,-2.5799034E0,-3.0100968E0,-1.812938E0,2.2592132E-1,-1.1748447E0,-2.0673516E0,-1.0032866E0,-2.0282947E-1,4.5045537E-1,-2.9046018E0,9.088339E-2,4.5088506E-1,1.3983835E0,-1.7540293E0,1.3507986E0,4.3900166E0,5.696859E0,3.161508E0,4.3811655E0,3.6139495E0,2.2509155E0,4.3835053E0,3.1115694E0,5.971368E0,4.7132053E0,-5.966779E-1,5.805631E-1,-1.0913521E0,-1.877427E0,-5.66213E-1,-2.3559477E-2,3.3157184E0,1.5083847E0,1.2053512E0,3.0719473E0,3.5775778E0,-2.7263162E0,3.4012582E0,1.6957657E0,4.4437256E0,3.5652323E0,3.6759976E-2,-8.354419E-1,-1.0298865E0,-1.9180362E0,4.1641164E0,2.1235564E0,-4.3496856E-1,1.5950781E0,1.618851E0,4.304672E-1,-1.271392E0,3.0497408E-1,-3.008082E-1,-2.1457722E0,9.234755E-3,-2.595484E0,3.519842E0,5.225797E-1,5.3255386E0,3.6356366E0,-1.7345765E-1,-7.718945E-1,2.6941211E0,7.3907393E-1],"split_indices":[6,2,1,5,1,2,5,5,0,3,0,5,0,5,0,0,0,3,3,0,0,2,2,5,0,2,5,0,0,3,2,4,1,0,1,1,1,1,1,2,5,5,5,4,5,1,1,3,0,5,6,5,5,5,2,4,2,0,2,2,1,1,2,4,6,1,3,0,0,6,1,6,4,1,1,1,1,6,4,6,1,6,6,6,4,3,6,1,3,6,1,0,1,0,0,4,6,3,0,6,6,3,6,6,0,3,3,3,2,3,2,0,0,6,2,2,2,1,3,3,3,0,0,0,0,0,0,0,0,0,0,0,0,0,0,0,0,0,0,0,0,0,0,0,0,0,0,0,0,0,0,0,0,0,0,0,0,0,0,0,0,0,0,0,0,0,0,0,0,0,0,0,0,0,0,0,0,0,0,0,0,0,0,0,0,0,0,0,0,0,0,0,0,0,0,0,0,0,0,0,0,0,0,0,0,0,0,0,0,0,0,0,0,0,0,0,0,0,0,0,0,0,0,0,0,0,0],"split_type":[0,0,0,0,0,0,0,0,0,0,0,0,0,0,0,0,0,0,0,0,0,0,0,0,0,0,0,0,0,0,0,0,0,0,0,0,0,0,0,0,0,0,0,0,0,0,0,0,0,0,0,0,0,0,0,0,0,0,0,0,0,0,0,0,0,0,0,0,0,0,0,0,0,0,0,0,0,0,0,0,0,0,0,0,0,0,0,0,0,0,0,0,0,0,0,0,0,0,0,0,0,0,0,0,0,0,0,0,0,0,0,0,0,0,0,0,0,0,0,0,0,0,0,0,0,0,0,0,0,0,0,0,0,0,0,0,0,0,0,0,0,0,0,0,0,0,0,0,0,0,0,0,0,0,0,0,0,0,0,0,0,0,0,0,0,0,0,0,0,0,0,0,0,0,0,0,0,0,0,0,0,0,0,0,0,0,0,0,0,0,0,0,0,0,0,0,0,0,0,0,0,0,0,0,0,0,0,0,0,0,0,0,0,0,0,0,0,0,0,0,0,0,0,0,0,0,0],"sum_hessian":[1.7888E4,9.602E3,8.286E3,3.805E3,5.797E3,2.811E3,5.475E3,1.393E3,2.412E3,1.907E3,3.89E3,1.194E3,1.617E3,2.096E3,3.379E3,1.142E3,2.51E2,1.194E3,1.218E3,1.086E3,8.21E2,1.962E3,1.928E3,4.68E2,7.26E2,8.45E2,7.72E2,1.763E3,3.33E2,1.635E3,1.744E3,5.63E2,5.79E2,1.45E2,1.06E2,6.75E2,5.19E2,7.03E2,5.15E2,5.67E2,5.19E2,3.37E2,4.84E2,1.285E3,6.77E2,1.25E3,6.78E2,4.05E2,6.3E1,3.88E2,3.38E2,4.1E2,4.35E2,2.63E2,5.09E2,8.75E2,8.88E2,1.66E2,1.67E2,9.2E2,7.15E2,7.56E2,9.88E2,4.32E2,1.31E2,4.85E2,9.4E1,8E1,2.6E1,4.45E2,2.3E2,1.72E2,3.47E2,4.52E2,2.51E2,3.39E2,1.76E2,3.61E2,2.06E2,1.71E2,3.48E2,8.8E1,2.49E2,1.9E2,2.94E2,8.56E2,4.29E2,2.03E2,4.74E2,6.41E2,6.09E2,3.38E2,3.4E2,2.28E2,1.77E2,1.84E2,2.04E2,3.33E2,5E0,1.41E2,2.69E2,1.32E2,3.03E2,2.19E2,4.4E1,2.84E2,2.25E2,6.16E2,2.59E2,3.71E2,5.17E2,8.2E1,8.5E1,3.99E2,5.21E2,3.67E2,3.48E2,5.75E2,1.81E2,4.97E2,4.91E2,4.29E2,3E0,8E1,5.1E1,3.97E2,8.8E1,6.1E1,3.3E1,8E0,4.37E2,1.05E2,1.25E2,1.8E1,1.54E2,2.1E2,1.37E2,2.35E2,2.17E2,1.34E2,1.17E2,1.77E2,1.62E2,9.8E1,7.8E1,1.7E1,3.44E2,1.45E2,6.1E1,8.9E1,8.2E1,1.68E2,1.8E2,8.7E1,1E0,2.03E2,4.6E1,1.79E2,1.1E1,1.89E2,1.05E2,5.25E2,3.31E2,3.94E2,3.5E1,1.04E2,9.9E1,2.63E2,2.11E2,5.74E2,6.7E1,3.03E2,3.06E2,5.9E1,2.79E2,1.64E2,1.76E2,1.17E2,1.11E2,9.4E1,8.3E1,1.57E2,2.7E1,1.59E2,4.5E1,2.07E2,1.26E2,2E0,3E0,1.03E2,3.8E1,2.03E2,6.6E1,7.4E1,5.8E1,2.87E2,1.6E1,2.18E2,1E0,1.67E2,1.17E2,1.24E2,1.01E2,3.66E2,2.5E2,1.03E2,1.56E2,2.07E2,1.64E2,2.78E2,2.39E2,1.44E2,2.55E2,2.77E2,2.44E2,1.66E2,2.01E2,2.52E2,9.6E1,3.85E2,1.9E2,1.12E2,6.9E1,2.95E2,2.02E2,2.99E2,1.92E2],"tree_param":{"num_deleted":"0","num_feature":"7","num_nodes":"227","size_leaf_vector":"1"}},{"base_weights":[1.9858783E-1,8.143675E0,-5.376326E0,7.785256E-1,1.5175862E1,-1.0965383E1,1.5957406E0,1.3687075E1,-5.689389E0,2.0353151E1,4.9388623E0,-1.622648E1,-5.7041354E0,1.3115999E1,-4.2052546E0,6.1745876E-1,1.7478134E1,7.641572E-1,-1.4566928E1,1.3458491E1,2.4680296E1,-7.725884E0,1.7419233E1,-1.3808853E1,-2.083981E1,-1.2484658E1,-2.2641342E0,5.287995E0,2.139579E1,-9.714797E0,1.7637691E0,-2.092077E0,4.9984455E0,1.1321353E1,2.1205473E1,3.935626E0,-8.076983E0,-1.6874294E1,-7.82701E0,2.5044882E1,-4.3712387E1,2.8589937E1,1.8897804E1,-1.4786664E1,-4.0338173E0,9.471143E0,2.2524836E1,-1.6944172E1,-8.682418E0,-1.6345072E1,-2.2987274E1,-6.8474383E0,-1.941419E1,-6.0100203E0,4.520465E0,-5.130463E0,1.48360195E1,2.5833893E1,1.4647262E1,-1.6835054E1,-2.316083E0,9.950704E0,-6.393011E0,5.54321E0,-4.257858E0,2.9267695E0,4.159417E0,-7.537696E0,2.0546547E1,5.847196E0,3.0514078E1,3.695052E0,6.495974E1,-2.2915682E1,-4.9089293E0,-1.07593775E1,-3.0052973E1,-1.478004E1,-3.2298899E0,1.4935848E1,3.4993816E1,-4.2792E0,-4.982059E1,1.8317905E1,3.83879E1,2.4986912E1,1.3648572E1,-1.04656725E1,-2.0068872E1,-7.2802976E-2,-9.44903E0,1.1721411E1,-7.094382E0,1.4462764E1,3.1019972E1,-1.514652E1,-1.9934526E1,-6.452227E0,-1.2716475E1,-2.0289204E1,-1.4112321E1,-2.037599E1,-2.6375679E1,-9.270403E0,-1.2640852E0,-1.910428E1,-2.9876638E1,-9.402401E-1,-1.14278965E1,8.820826E0,3.6484846E-1,-6.5976114E0,-2.7645955E0,1.9276342E1,9.295119E0,2.2223124E1,2.967087E1,8.676276E0,2.229132E1,-2.747224E1,-6.3350716E0,1.472521E1,-1.9912365E1,3.436779E0,1.7685467E1,-2.1543867E1,8.976322E0,3.1401545E-1,2.3593695E0,-8.852714E-1,-2.0950706E-1,1.2139243E0,1.4842744E-1,2.4708307E-1,-5.070303E0,3.373969E0,-4.340167E0,1.6081497E-1,8.72139E-1,3.9148555E0,2.982986E0,-1.9064648E-1,9.1122E-1,1.6094393E0,9.008792E0,-4.480986E0,-1.3434213E0,9.667769E-1,-1.2652369E0,-1.5515918E0,-7.659133E-1,-4.194945E0,-3.06717E0,-7.749144E-1,-2.2757642E0,1.2261043E0,-5.513555E-1,1.6223242E0,2.920671E0,4.6766114E0,3.5179062E0,-4.398505E0,-6.946361E0,1.5932595E0,2.6478193E0,4.9115324E0,4.124427E0,1.972551E0,3.733635E0,1.2186462E0,2.3311245E0,2.4649914E-1,-6.9111137E0,-1.313733E0,-6.749722E0,-5.3821594E-1,7.2909224E-1,-1.4501616E0,-2.964837E-1,2.915365E0,-6.3040495E0,2.8926728E0,-7.8495903E0,2.4344337E0,7.324453E-1,4.2957945E0,2.6950917E0,-1.9153537E0,-9.97273E-1,-2.7081835E0,-1.5649574E0,-1.4796826E0,-9.197776E-2,-2.7549996E0,-5.1847756E-1,-8.634643E-1,-2.4348683E0,-2.630485E0,-1.3933637E0,-6.8966002E0,-2.0152261E0,-7.5307193E0,-2.4750128E0,-1.7468445E0,-7.5136065E-1,-1.1788998E0,2.9129395E-1,-2.6038363E0,-1.9877834E0,-4.023182E0,-1.5171492E0,7.328759E-1,-5.2266157E-1,-2.564855E0,-9.928179E-2,2.2193575E0,5.1772624E-1,-1.311252E0,1.3219829E0,-1.9963172E-1,-9.562963E-1,4.8769844E-1,-8.178526E-1,1.1885366E0,3.0166142E0,2.4213848E-1,1.7971116E0,1.5023489E0,3.0837305E0,2.5382528E0,4.063239E0,2.263182E-1,1.4984692E0,2.7966263E0,-5.204212E-1,-2.7612836E0,-3.8116214E0,-1.1346668E0,-4.8355934E-1,3.9161303E0,-6.184394E-1,-3.8758798E0,-8.548181E-1,8.824495E-1,-2.528071E-1,8.9274055E-1,2.9448376E0,-3.5736828E0,-1.2457805E0,-1.4774516E-1,1.6044471E0],"categories":[],"categories_nodes":[],"categories_segments":[],"categories_sizes":[],"default_left":[0,0,0,0,0,0,0,0,0,0,0,0,0,0,0,0,0,0,0,0,0,0,0,0,0,0,0,0,0,0,0,0,0,0,0,0,0,0,0,0,0,0,0,0,0,0,0,0,0,0,0,0,0,0,0,0,0,0,0,0,0,0,0,0,0,0,0,0,0,0,0,0,0,0,0,0,0,0,0,0,0,0,0,0,0,0,0,0,0,0,0,0,0,0,0,0,0,0,0,0,0,0,0,0,0,0,0,0,0,0,0,0,0,0,0,0,0,0,0,0,0,0,0,0,0,0,0,0,0,0,0,0,0,0,0,0,0,0,0,0,0,0,0,0,0,0,0,0,0,0,0,0,0,0,0,0,0,0,0,0,0,0,0,0,0,0,0,0,0,0,0,0,0,0,0,0,0,0,0,0,0,0,0,0,0,0,0,0,0,0,0,0,0,0,0,0,0,0,0,0,0,0,0,0,0,0,0,0,0,0,0,0,0,0,0,0,0,0,0,0,0,0,0,0,0,0,0,0,0,0,0,0,0,0,0,0,0,0,0,0,0,0,0,0,0,0,0,0,0,0,0],"id":7,"left_children":[1,3,5,7,9,11,13,15,17,19,21,23,25,27,29,31,33,35,37,39,41,43,45,47,49,51,53,55,57,59,61,63,65,67,69,71,73,75,77,79,81,83,85,87,89,91,93,95,97,99,101,103,105,107,109,111,113,115,117,119,121,123,125,127,129,-1,131,133,135,137,139,141,143,145,147,149,151,153,155,157,159,-1,161,163,165,167,169,171,173,175,177,179,181,183,185,187,189,191,193,195,197,199,201,203,205,207,209,211,213,215,217,219,221,223,225,227,229,231,233,235,237,239,241,243,245,247,249,-1,-1,-1,-1,-1,-1,-1,-1,-1,-1,-1,-1,-1,-1,-1,-1,-1,-1,-1,-1,-1,-1,-1,-1,-1,-1,-1,-1,-1,-1,-1,-1,-1,-1,-1,-1,-1,-1,-1,-1,-1,-1,-1,-1,-1,-1,-1,-1,-1,-1,-1,-1,-1,-1,-1,-1,-1,-1,-1,-1,-1,-1,-1,-1,-1,-1,-1,-1,-1,-1,-1,-1,-1,-1,-1,-1,-1,-1,-1,-1,-1,-1,-1,-1,-1,-1,-1,-1,-1,-1,-1,-1,-1,-1,-1,-1,-1,-1,-1,-1,-1,-1,-1,-1,-1,-1,-1,-1,-1,-1,-1,-1,-1,-1,-1,-1,-1,-1,-1,-1,-1,-1,-1,-1],"loss_changes":[7.994027E5,3.8543253E5,4.133044E5,3.036526E5,2.0167012E5,1.6285919E5,3.1548788E5,6.014011E4,1.3882869E5,7.508869E4,2.0245231E5,3.2536438E4,6.866389E4,1.0235816E5,1.0328103E5,3.262958E3,2.1354406E4,3.9399105E4,1.5730422E4,6.482636E5,3.45465E4,1.6520156E4,2.5960625E4,3.0938094E4,9.373094E3,3.857878E4,4.9712195E4,8.104933E4,2.2623719E4,8.598867E4,1.0076638E5,2.8347827E3,1.6702051E3,6.2265152E4,8.345559E4,1.493995E4,1.7328143E4,6.084183E4,8.326807E3,8.1244125E4,5.1725312E3,9.229275E4,1.976375E4,4.765676E3,8.986751E3,9.551482E3,2.6398812E4,6.1434375E3,6.539539E3,2.6197422E3,5.4880938E3,7.4017715E3,8.688594E2,3.4598223E4,1.2434754E4,1.3354805E3,1.0277273E4,5.741375E3,1.3818867E4,9.275225E4,2.4078366E5,3.7878125E4,1.7623444E5,1.5376473E3,1.0806633E3,0E0,1.8311545E3,4.1154484E4,1.18219984E5,1.6208535E3,4.6859375E3,2.273864E4,1.4733047E3,1.1074973E4,2.42725E4,5.498574E3,4.3698906E3,3.9003652E3,3.347442E3,3.7566406E3,8.9005625E3,0E0,7.8255625E3,8.979625E3,3.8146875E3,1.5986359E4,6.6845703E3,7.5208086E4,3.164836E4,7.0365024E3,3.6446738E3,1.9799011E5,6.1433184E4,1.0568832E4,7.941875E3,6.3407344E3,9.352234E3,1.6860994E4,2.351164E4,7.9191016E2,3.6192344E3,4.5292625E4,5.6030125E4,6.073047E3,5.600963E3,2.4908125E3,4.178213E2,1.6777604E4,6.829151E4,1.5238512E4,4.5511293E4,1.8818975E3,4.5046655E3,1.3880375E4,8.434568E3,9.283672E3,8.340516E3,4.891372E3,6.3282266E3,7.3904688E3,3.085498E3,1.5484922E5,6.6209266E4,9.546731E3,2.6039094E4,3.749828E4,1.8538004E4,0E0,0E0,0E0,0E0,0E0,0E0,0E0,0E0,0E0,0E0,0E0,0E0,0E0,0E0,0E0,0E0,0E0,0E0,0E0,0E0,0E0,0E0,0E0,0E0,0E0,0E0,0E0,0E0,0E0,0E0,0E0,0E0,0E0,0E0,0E0,0E0,0E0,0E0,0E0,0E0,0E0,0E0,0E0,0E0,0E0,0E0,0E0,0E0,0E0,0E0,0E0,0E0,0E0,0E0,0E0,0E0,0E0,0E0,0E0,0E0,0E0,0E0,0E0,0E0,0E0,0E0,0E0,0E0,0E0,0E0,0E0,0E0,0E0,0E0,0E0,0E0,0E0,0E0,0E0,0E0,0E0,0E0,0E0,0E0,0E0,0E0,0E0,0E0,0E0,0E0,0E0,0E0,0E0,0E0,0E0,0E0,0E0,0E0,0E0,0E0,0E0,0E0,0E0,0E0,0E0,0E0,0E0,0E0,0E0,0E0,0E0,0E0,0E0,0E0,0E0,0E0,0E0,0E0,0E0,0E0,0E0,0E0,0E0,0E0],"parents":[2147483647,0,0,1,1,2,2,3,3,4,4,5,5,6,6,7,7,8,8,9,9,10,10,11,11,12,12,13,13,14,14,15,15,16,16,17,17,18,18,19,19,20,20,21,21,22,22,23,23,24,24,25,25,26,26,27,27,28,28,29,29,30,30,31,31,32,32,33,33,34,34,35,35,36,36,37,37,38,38,39,39,40,40,41,41,42,42,43,43,44,44,45,45,46,46,47,47,48,48,49,49,50,50,51,51,52,52,53,53,54,54,55,55,56,56,57,57,58,58,59,59,60,60,61,61,62,62,63,63,64,64,66,66,67,67,68,68,69,69,70,70,71,71,72,72,73,73,74,74,75,75,76,76,77,77,78,78,79,79,80,80,82,82,83,83,84,84,85,85,86,86,87,87,88,88,89,89,90,90,91,91,92,92,93,93,94,94,95,95,96,96,97,97,98,98,99,99,100,100,101,101,102,102,103,103,104,104,105,105,106,106,107,107,108,108,109,109,110,110,111,111,112,112,113,113,114,114,115,115,116,116,117,117,118,118,119,119,120,120,121,121,122,122,123,123,124,124,125,125,126,126],"right_children":[2,4,6,8,10,12,14,16,18,20,22,24,26,28,30,32,34,36,38,40,42,44,46,48,50,52,54,56,58,60,62,64,66,68,70,72,74,76,78,80,82,84,86,88,90,92,94,96,98,100,102,104,106,108,110,112,114,116,118,120,122,124,126,128,130,-1,132,134,136,138,140,142,144,146,148,150,152,154,156,158,160,-1,162,164,166,168,170,172,174,176,178,180,182,184,186,188,190,192,194,196,198,200,202,204,206,208,210,212,214,216,218,220,222,224,226,228,230,232,234,236,238,240,242,244,246,248,250,-1,-1,-1,-1,-1,-1,-1,-1,-1,-1,-1,-1,-1,-1,-1,-1,-1,-1,-1,-1,-1,-1,-1,-1,-1,-1,-1,-1,-1,-1,-1,-1,-1,-1,-1,-1,-1,-1,-1,-1,-1,-1,-1,-1,-1,-1,-1,-1,-1,-1,-1,-1,-1,-1,-1,-1,-1,-1,-1,-1,-1,-1,-1,-1,-1,-1,-1,-1,-1,-1,-1,-1,-1,-1,-1,-1,-1,-1,-1,-1,-1,-1,-1,-1,-1,-1,-1,-1,-1,-1,-1,-1,-1,-1,-1,-1,-1,-1,-1,-1,-1,-1,-1,-1,-1,-1,-1,-1,-1,-1,-1,-1,-1,-1,-1,-1,-1,-1,-1,-1,-1,-1,-1,-1],"split_conditions":[2E0,3E1,1.0279038E1,2E0,4E0,3E1,2E0,1E0,1E0,6E0,5E0,1E0,2E0,3E1,3E0,2.6E1,6E0,1E0,5E0,5E0,1E0,6E0,6E0,3E0,5E0,1E0,3E0,3E0,1E0,4E0,4E0,2.9845023E0,1.4899293E0,9.348123E0,1.0279038E1,2.096893E1,4.5442147E0,4E0,7.790168E0,1.0279038E1,2E0,9.32663E0,2E0,1E0,1E0,1.7098413E1,9.348123E0,1E0,4E0,2E0,1E0,7.441064E0,9.348123E0,4E0,4E0,1E0,1E0,3E0,3E0,3E1,5E0,3.1E1,5E0,1.572536E0,7E0,2.9267695E0,5E0,5E0,5E0,4.6741586E0,1E0,7E0,2.3E1,7E0,7.6607037E0,1.2256094E1,6E0,4.63611E0,9.192717E0,3.9E1,2E0,-4.2792E0,9.348123E0,2E0,1.3413663E1,9.315037E0,1.229352E1,5E0,5E0,1.0570262E1,1.2350847E1,5E0,5E0,1E0,1E0,5E0,4E0,2E0,5E0,1.5147948E0,2.2E1,6E0,6E0,6E0,6E0,6E0,6E0,5E0,5E0,5E0,5E0,5E0,5E0,6E0,7E0,6E0,6E0,6E0,2.0253489E1,1E0,6E0,3E1,3E1,1E0,7E0,3.1E1,6E0,3.1401545E-1,2.3593695E0,-8.852714E-1,-2.0950706E-1,1.2139243E0,1.4842744E-1,2.4708307E-1,-5.070303E0,3.373969E0,-4.340167E0,1.6081497E-1,8.72139E-1,3.9148555E0,2.982986E0,-1.9064648E-1,9.1122E-1,1.6094393E0,9.008792E0,-4.480986E0,-1.3434213E0,9.667769E-1,-1.2652369E0,-1.5515918E0,-7.659133E-1,-4.194945E0,-3.06717E0,-7.749144E-1,-2.2757642E0,1.2261043E0,-5.513555E-1,1.6223242E0,2.920671E0,4.6766114E0,3.5179062E0,-4.398505E0,-6.946361E0,1.5932595E0,2.6478193E0,4.9115324E0,4.124427E0,1.972551E0,3.733635E0,1.2186462E0,2.3311245E0,2.4649914E-1,-6.9111137E0,-1.313733E0,-6.749722E0,-5.3821594E-1,7.2909224E-1,-1.4501616E0,-2.964837E-1,2.915365E0,-6.3040495E0,2.8926728E0,-7.8495903E0,2.4344337E0,7.324453E-1,4.2957945E0,2.6950917E0,-1.9153537E0,-9.97273E-1,-2.7081835E0,-1.5649574E0,-1.4796826E0,-9.197776E-2,-2.7549996E0,-5.1847756E-1,-8.634643E-1,-2.4348683E0,-2.630485E0,-1.3933637E0,-6.8966002E0,-2.0152261E0,-7.5307193E0,-2.4750128E0,-1.7468445E0,-7.5136065E-1,-1.1788998E0,2.9129395E-1,-2.6038363E0,-1.9877834E0,-4.023182E0,-1.5171492E0,7.328759E-1,-5.2266157E-1,-2.564855E0,-9.928179E-2,2.2193575E0,5.1772624E-1,-1.311252E0,1.3219829E0,-1.9963172E-1,-9.562963E-1,4.8769844E-1,-8.178526E-1,1.1885366E0,3.0166142E0,2.4213848E-1,1.7971116E0,1.5023489E0,3.0837305E0,2.5382528E0,4.063239E0,2.263182E-1,1.4984692E0,2.7966263E0,-5.204212E-1,-2.7612836E0,-3.8116214E0,-1.1346668E0,-4.8355934E-1,3.9161303E0,-6.184394E-1,-3.8758798E0,-8.548181E-1,8.824495E-1,-2.528071E-1,8.9274055E-1,2.9448376E0,-3.5736828E0,-1.2457805E0,-1.4774516E-1,1.6044471E0],"split_indices":[2,0,6,1,1,0,1,2,3,5,1,4,1,0,2,0,5,4,1,5,3,5,5,2,5,3,2,2,3,1,1,6,6,6,6,6,6,1,6,6,1,6,1,3,3,6,6,3,1,1,3,6,6,1,1,3,3,2,2,0,1,0,1,6,5,0,5,5,5,6,3,5,0,5,6,6,5,6,6,0,1,0,6,1,6,6,6,5,5,6,6,5,5,3,3,1,1,1,1,6,0,5,5,5,5,5,5,5,1,5,1,5,5,5,5,5,5,5,6,3,5,0,0,3,5,0,5,0,0,0,0,0,0,0,0,0,0,0,0,0,0,0,0,0,0,0,0,0,0,0,0,0,0,0,0,0,0,0,0,0,0,0,0,0,0,0,0,0,0,0,0,0,0,0,0,0,0,0,0,0,0,0,0,0,0,0,0,0,0,0,0,0,0,0,0,0,0,0,0,0,0,0,0,0,0,0,0,0,0,0,0,0,0,0,0,0,0,0,0,0,0,0,0,0,0,0,0,0,0,0,0,0,0,0,0,0,0,0,0,0,0,0,0,0,0,0,0,0,0,0,0],"split_type":[0,0,0,0,0,0,0,0,0,0,0,0,0,0,0,0,0,0,0,0,0,0,0,0,0,0,0,0,0,0,0,0,0,0,0,0,0,0,0,0,0,0,0,0,0,0,0,0,0,0,0,0,0,0,0,0,0,0,0,0,0,0,0,0,0,0,0,0,0,0,0,0,0,0,0,0,0,0,0,0,0,0,0,0,0,0,0,0,0,0,0,0,0,0,0,0,0,0,0,0,0,0,0,0,0,0,0,0,0,0,0,0,0,0,0,0,0,0,0,0,0,0,0,0,0,0,0,0,0,0,0,0,0,0,0,0,0,0,0,0,0,0,0,0,0,0,0,0,0,0,0,0,0,0,0,0,0,0,0,0,0,0,0,0,0,0,0,0,0,0,0,0,0,0,0,0,0,0,0,0,0,0,0,0,0,0,0,0,0,0,0,0,0,0,0,0,0,0,0,0,0,0,0,0,0,0,0,0,0,0,0,0,0,0,0,0,0,0,0,0,0,0,0,0,0,0,0,0,0,0,0,0,0,0,0,0,0,0,0,0,0,0,0,0,0,0,0,0,0,0,0],"sum_hessian":[1.8046E4,7.441E3,1.0605E4,3.635E3,3.806E3,5.886E3,4.719E3,1.213E3,2.422E3,2.527E3,1.279E3,2.942E3,2.944E3,1.58E3,3.139E3,2.73E2,9.4E2,1.403E3,1.019E3,9.76E2,1.551E3,6.35E2,6.44E2,1.933E3,1.009E3,9.9E2,1.954E3,8.13E2,7.67E2,1.632E3,1.507E3,1.69E2,1.04E2,3.56E2,5.84E2,1.033E3,3.7E2,7.58E2,2.61E2,8.12E2,1.64E2,9.23E2,6.28E2,2.17E2,4.18E2,2.53E2,3.91E2,1.198E3,7.35E2,3.29E2,6.8E2,5.47E2,4.43E2,1.259E3,6.95E2,3.89E2,4.24E2,4.61E2,3.06E2,8.31E2,8.01E2,7.52E2,7.55E2,3.7E1,1.32E2,3E0,1.01E2,1.17E2,2.39E2,2.21E2,3.63E2,1.03E3,3E0,6.4E1,3.06E2,5.19E2,2.39E2,1.03E2,1.58E2,4.04E2,4.08E2,8E1,8.4E1,4.52E2,4.71E2,2.89E2,3.39E2,1.21E2,9.6E1,2.42E2,1.76E2,2.23E2,3E1,2.02E2,1.89E2,7.52E2,4.46E2,4.75E2,2.6E2,1.16E2,2.13E2,3.88E2,2.92E2,3.81E2,1.66E2,4.33E2,1E1,6.51E2,6.08E2,3.41E2,3.54E2,2.39E2,1.5E2,2.34E2,1.9E2,2.41E2,2.2E2,1.73E2,1.33E2,4.12E2,4.19E2,4.07E2,3.94E2,4.09E2,3.43E2,3.8E2,3.75E2,3.2E1,5E0,5.5E1,7.7E1,3.1E1,7E1,9.3E1,2.4E1,2.09E2,3E1,6E1,1.61E2,2.18E2,1.45E2,4.5E2,5.8E2,1E0,2E0,2.6E1,3.8E1,9.5E1,2.11E2,3.2E2,1.99E2,8.8E1,1.51E2,3.9E1,6.4E1,1.5E1,1.43E2,3.7E2,3.4E1,1.92E2,2.16E2,4E1,4.4E1,2.23E2,2.29E2,2E2,2.71E2,1.37E2,1.52E2,2.28E2,1.11E2,9.7E1,2.4E1,7.9E1,1.7E1,1.41E2,1.01E2,1.22E2,5.4E1,